{"learner":{"attributes":{"scikit_learn":"{\"_estimator_type\": \"classifier\"}"},"feature_names":[],"feature_types":[],"gradient_booster":{"model":{"cats":{"enc":[],"feature_segments":[],"sorted_idx":[]},"gbtree_model_param":{"num_parallel_tree":"1","num_trees":"400"},"iteration_indptr":[0,1,2,3,4,5,6,7,8,9,10,11,12,13,14,15,16,17,18,19,20,21,22,23,24,25,26,27,28,29,30,31,32,33,34,35,36,37,38,39,40,41,42,43,44,45,46,47,48,49,50,51,52,53,54,55,56,57,58,59,60,61,62,63,64,65,66,67,68,69,70,71,72,73,74,75,76,77,78,79,80,81,82,83,84,85,86,87,88,89,90,91,92,93,94,95,96,97,98,99,100,101,102,103,104,105,106,107,108,109,110,111,112,113,114,115,116,117,118,119,120,121,122,123,124,125,126,127,128,129,130,131,132,133,134,135,136,137,138,139,140,141,142,143,144,145,146,147,148,149,150,151,152,153,154,155,156,157,158,159,160,161,162,163,164,165,166,167,168,169,170,171,172,173,174,175,176,177,178,179,180,181,182,183,184,185,186,187,188,189,190,191,192,193,194,195,196,197,198,199,200,201,202,203,204,205,206,207,208,209,210,211,212,213,214,215,216,217,218,219,220,221,222,223,224,225,226,227,228,229,230,231,232,233,234,235,236,237,238,239,240,241,242,243,244,245,246,247,248,249,250,251,252,253,254,255,256,257,258,259,260,261,262,263,264,265,266,267,268,269,270,271,272,273,274,275,276,277,278,279,280,281,282,283,284,285,286,287,288,289,290,291,292,293,294,295,296,297,298,299,300,301,302,303,304,305,306,307,308,309,310,311,312,313,314,315,316,317,318,319,320,321,322,323,324,325,326,327,328,329,330,331,332,333,334,335,336,337,338,339,340,341,342,343,344,345,346,347,348,349,350,351,352,353,354,355,356,357,358,359,360,361,362,363,364,365,366,367,368,369,370,371,372,373,374,375,376,377,378,379,380,381,382,383,384,385,386,387,388,389,390,391,392,393,394,395,396,397,398,399,400],"tree_info":[0,0,0,0,0,0,0,0,0,0,0,0,0,0,0,0,0,0,0,0,0,0,0,0,0,0,0,0,0,0,0,0,0,0,0,0,0,0,0,0,0,0,0,0,0,0,0,0,0,0,0,0,0,0,0,0,0,0,0,0,0,0,0,0,0,0,0,0,0,0,0,0,0,0,0,0,0,0,0,0,0,0,0,0,0,0,0,0,0,0,0,0,0,0,0,0,0,0,0,0,0,0,0,0,0,0,0,0,0,0,0,0,0,0,0,0,0,0,0,0,0,0,0,0,0,0,0,0,0,0,0,0,0,0,0,0,0,0,0,0,0,0,0,0,0,0,0,0,0,0,0,0,0,0,0,0,0,0,0,0,0,0,0,0,0,0,0,0,0,0,0,0,0,0,0,0,0,0,0,0,0,0,0,0,0,0,0,0,0,0,0,0,0,0,0,0,0,0,0,0,0,0,0,0,0,0,0,0,0,0,0,0,0,0,0,0,0,0,0,0,0,0,0,0,0,0,0,0,0,0,0,0,0,0,0,0,0,0,0,0,0,0,0,0,0,0,0,0,0,0,0,0,0,0,0,0,0,0,0,0,0,0,0,0,0,0,0,0,0,0,0,0,0,0,0,0,0,0,0,0,0,0,0,0,0,0,0,0,0,0,0,0,0,0,0,0,0,0,0,0,0,0,0,0,0,0,0,0,0,0,0,0,0,0,0,0,0,0,0,0,0,0,0,0,0,0,0,0,0,0,0,0,0,0,0,0,0,0,0,0,0,0,0,0,0,0,0,0,0,0,0,0,0,0,0,0,0,0,0,0,0,0,0,0,0,0,0,0,0,0,0,0,0,0,0,0,0,0,0,0,0,0,0,0,0,0,0,0,0,0,0,0,0,0,0,0,0,0,0,0],"trees":[{"base_weights":[1.6298234E-1,8.694013E-1,-8.0056953E-1,-4.46507E-2,1.2857934E0,5.5897236E-1,-8.5246995E-2,8.0129944E-2,-1.5325673E-2,5.5687945E-2,-1.5325673E-2],"categories":[],"categories_nodes":[],"categories_segments":[],"categories_sizes":[],"default_left":[0,0,0,0,0,0,0,0,0,0,0],"id":0,"left_children":[1,3,5,-1,7,9,-1,-1,-1,-1,-1],"loss_changes":[1.1867746E1,8.449638E0,1.012953E1,0E0,4.7577715E0,2.1345541E0,0E0,0E0,0E0,0E0,0E0],"parents":[2147483647,0,0,1,1,2,2,4,4,5,5],"right_children":[2,4,6,-1,8,10,-1,-1,-1,-1,-1],"split_conditions":[6.2461406E-1,1.7211753E-1,2.524693E-1,-4.46507E-2,7.917027E-1,3.9566725E-1,-8.5246995E-2,8.0129944E-2,-1.5325673E-2,5.5687945E-2,-1.5325673E-2],"split_indices":[867,580,1111,0,213,42,0,0,0,0,0],"split_type":[0,0,0,0,0,0,0,0,0,0,0],"sum_hessian":[1.5412812E1,8.949375E0,6.4634376E0,1.4915625E0,7.4578123E0,2.7345312E0,3.7289062E0,6.2148438E0,1.2429688E0,1.4915625E0,1.2429688E0],"tree_param":{"num_deleted":"0","num_feature":"1280","num_nodes":"11","size_leaf_vector":"1"}},{"base_weights":[2.2769545E-1,-8.7936693E-1,8.936375E-1,3.4953233E-2,-7.451401E-2,7.305665E-2,-6.501921E-1,7.9311775E-3,-5.8452237E-2],"categories":[],"categories_nodes":[],"categories_segments":[],"categories_sizes":[],"default_left":[0,0,0,0,0,0,0,0,0],"id":1,"left_children":[1,3,5,-1,-1,-1,7,-1,-1],"loss_changes":[1.2497662E1,7.2815347E0,1.0074956E1,0E0,0E0,0E0,1.650673E0,0E0,0E0],"parents":[2147483647,0,0,1,1,2,2,6,6],"right_children":[2,4,6,-1,-1,-1,8,-1,-1],"split_conditions":[4.204905E-1,2.2814432E-1,6.572526E-1,3.4953233E-2,-7.451401E-2,7.305665E-2,6.6177773E-1,7.9311775E-3,-5.8452237E-2],"split_indices":[1015,758,570,0,0,0,14,0,0],"split_type":[0,0,0,0,0,0,0,0,0],"sum_hessian":[1.4886056E1,5.4708414E0,9.415215E0,1.4863157E0,3.9845257E0,6.9237013E0,2.4915137E0,1.2450079E0,1.2465059E0],"tree_param":{"num_deleted":"0","num_feature":"1280","num_nodes":"9","size_leaf_vector":"1"}},{"base_weights":[2.2342974E-1,-1.2335112E0,7.986196E-1,-7.458531E-2,-1.4041658E-2,1.1529331E0,-5.9711922E-2,-2.007005E-2,7.848725E-2],"categories":[],"categories_nodes":[],"categories_segments":[],"categories_sizes":[],"default_left":[0,0,0,0,0,0,0,0,0],"id":2,"left_children":[1,3,5,-1,-1,7,-1,-1,-1],"loss_changes":[1.38417845E1,7.458892E-1,9.572064E0,0E0,0E0,7.3439894E0,0E0,0E0,0E0],"parents":[2147483647,0,0,1,1,2,2,5,5],"right_children":[2,4,6,-1,-1,8,-1,-1,-1],"split_conditions":[3.2533032E-1,6.796972E-1,8.899249E-1,-7.458531E-2,-1.4041658E-2,1.803909E-1,-5.9711922E-2,-2.007005E-2,7.848725E-2],"split_indices":[59,168,1032,0,0,60,0,0,0],"split_type":[0,0,0,0,0,0,0,0,0],"sum_hessian":[1.4341775E1,3.7354498E0,1.0606325E1,2.4937816E0,1.2416682E0,9.36311E0,1.2432152E0,1.9877093E0,7.3754005E0],"tree_param":{"num_deleted":"0","num_feature":"1280","num_nodes":"9","size_leaf_vector":"1"}},{"base_weights":[-6.3994974E-2,6.4083695E-1,-8.6799335E-1,-4.9331628E-2,1.0854299E0,5.3164613E-1,-7.8131095E-2,-1.4046818E-2,7.364446E-2,5.4108698E-2,-1.5914023E-2],"categories":[],"categories_nodes":[],"categories_segments":[],"categories_sizes":[],"default_left":[0,0,0,0,0,0,0,0,0,0,0],"id":3,"left_children":[1,3,5,-1,7,9,-1,-1,-1,-1,-1],"loss_changes":[1.0905343E1,8.528455E0,9.537914E0,0E0,4.951583E0,2.0834768E0,0E0,0E0,0E0,0E0,0E0],"parents":[2147483647,0,0,1,1,2,2,4,4,5,5],"right_children":[2,4,6,-1,8,10,-1,-1,-1,-1,-1],"split_conditions":[5.819261E-1,9.0533756E-2,3.0941188E-1,-4.9331628E-2,3.2523823E-1,4.6846494E-1,-7.8131095E-2,-1.4046818E-2,7.364446E-2,5.4108698E-2,-1.5914023E-2],"split_indices":[867,711,682,0,931,82,0,0,0,0,0],"split_type":[0,0,0,0,0,0,0,0,0,0,0],"sum_hessian":[1.7262568E1,9.306704E0,7.955863E0,1.7353027E0,7.571401E0,2.71663E0,5.239233E0,1.7334288E0,5.8379726E0,1.4828676E0,1.2337623E0],"tree_param":{"num_deleted":"0","num_feature":"1280","num_nodes":"11","size_leaf_vector":"1"}},{"base_weights":[-3.0863069E-2,-1.0635892E0,4.4498366E-1,1.3129189E-2,-7.7743605E-2,8.0618584E-1,-5.157732E-2,-3.5785582E-2,1.2191261E0,-1.4795869E-2,7.487444E-2],"categories":[],"categories_nodes":[],"categories_segments":[],"categories_sizes":[],"default_left":[0,0,0,0,0,0,0,0,0,0,0],"id":4,"left_children":[1,3,5,-1,-1,7,-1,-1,9,-1,-1],"loss_changes":[9.29317E0,4.28891E0,7.76036E0,0E0,0E0,7.785161E0,0E0,0E0,4.2479076E0,0E0,0E0],"parents":[2147483647,0,0,1,1,2,2,5,5,8,8],"right_children":[2,4,6,-1,-1,8,-1,-1,10,-1,-1],"split_conditions":[4.7961724E-1,2.6885808E-1,8.050903E-1,1.3129189E-2,-7.7743605E-2,2.0242481E-1,-5.157732E-2,-3.5785582E-2,7.9952694E-2,-1.4795869E-2,7.487444E-2],"split_indices":[542,537,570,0,0,557,0,0,515,0,0],"split_type":[0,0,0,0,0,0,0,0,0,0,0],"sum_hessian":[1.6947786E1,4.956211E0,1.1991574E1,1.4655654E0,3.4906456E0,9.999424E0,1.9921501E0,1.9776304E0,8.021794E0,1.2353101E0,6.786484E0],"tree_param":{"num_deleted":"0","num_feature":"1280","num_nodes":"11","size_leaf_vector":"1"}},{"base_weights":[-4.4966884E-2,-7.473155E-2,3.8231757E-1,7.608758E-1,-1.0098299E0,-4.2151958E-2,1.0492725E0,-6.15694E-2,-1.5190995E-2,-3.47483E-2,6.689792E-2],"categories":[],"categories_nodes":[],"categories_segments":[],"categories_sizes":[],"default_left":[0,0,0,0,0,0,0,0,0,0,0],"id":5,"left_children":[1,-1,3,5,7,-1,9,-1,-1,-1,-1],"loss_changes":[1.2235347E1,0E0,8.85268E0,6.727118E0,2.0608687E-1,0E0,6.5449276E0,0E0,0E0,0E0,0E0],"parents":[2147483647,0,0,2,2,3,3,4,4,6,6],"right_children":[2,-1,4,6,8,-1,10,-1,-1,-1,-1],"split_conditions":[3.8469407E-1,-7.473155E-2,8.0698043E-1,1.19614966E-1,4.391675E-1,-4.2151958E-2,1.13235384E-1,-6.15694E-2,-1.5190995E-2,-3.47483E-2,6.689792E-2],"split_indices":[542,0,691,267,167,0,953,0,0,0,0],"split_type":[0,0,0,0,0,0,0,0,0,0,0],"sum_hessian":[1.7830425E1,3.4904087E0,1.4340016E1,1.163078E1,2.7092361E0,1.4794796E0,1.0151301E1,1.4957068E0,1.2135293E0,1.2416869E0,8.909615E0],"tree_param":{"num_deleted":"0","num_feature":"1280","num_nodes":"11","size_leaf_vector":"1"}},{"base_weights":[8.958915E-5,-1.0347635E0,7.0600545E-1,3.0070031E-2,-7.862191E-2,1.0666852E0,-5.2003033E-2,-1.5898267E-2,1.3275243E0,7.0947275E-2,2.196189E-2],"categories":[],"categories_nodes":[],"categories_segments":[],"categories_sizes":[],"default_left":[0,0,0,0,0,0,0,0,0,0,0],"id":6,"left_children":[1,3,5,-1,-1,7,-1,-1,9,-1,-1],"loss_changes":[1.2457298E1,7.0291533E0,7.493654E0,0E0,0E0,3.6349163E0,0E0,0E0,3.1661987E-4,0E0,0E0],"parents":[2147483647,0,0,1,1,2,2,5,5,8,8],"right_children":[2,4,6,-1,-1,8,-1,-1,10,-1,-1],"split_conditions":[3.2332554E-1,3.1906104E-1,9.1920805E-1,3.0070031E-2,-7.862191E-2,1.4274445E-1,-5.2003033E-2,-1.5898267E-2,7.4566686E-1,7.0947275E-2,2.196189E-2],"split_indices":[717,135,1089,0,0,630,0,0,1124,0,0],"split_type":[0,0,0,0,0,0,0,0,0,0,0],"sum_hessian":[1.5052623E1,5.9152236E0,9.1374E0,1.4337492E0,4.4814744E0,7.895534E0,1.2418652E0,1.2168645E0,6.67867E0,5.5138016E0,1.1648681E0],"tree_param":{"num_deleted":"0","num_feature":"1280","num_nodes":"11","size_leaf_vector":"1"}},{"base_weights":[-1.8822588E-1,-1.1158863E0,6.059415E-1,2.8183287E-2,-7.9369284E-2,6.389913E-2,-5.1833846E-2],"categories":[],"categories_nodes":[],"categories_segments":[],"categories_sizes":[],"default_left":[0,0,0,0,0,0,0],"id":7,"left_children":[1,3,5,-1,-1,-1,-1],"loss_changes":[1.2293657E1,6.9332523E0,1.141899E1,0E0,0E0,0E0,0E0],"parents":[2147483647,0,0,1,1,2,2],"right_children":[2,4,6,-1,-1,-1,-1],"split_conditions":[4.2122725E-1,2.133851E-1,7.056459E-1,2.8183287E-2,-7.9369284E-2,6.389913E-2,-5.1833846E-2],"split_indices":[322,1139,1042,0,0,0,0],"split_type":[0,0,0,0,0,0,0],"sum_hessian":[1.4769263E1,6.6252546E0,8.144009E0,1.4093746E0,5.2158804E0,5.9370003E0,2.2070084E0],"tree_param":{"num_deleted":"0","num_feature":"1280","num_nodes":"7","size_leaf_vector":"1"}},{"base_weights":[-1.6255152E-1,-5.95866E-1,5.3011816E-2,5.764825E-1,-1.0437068E0,5.2312084E-2,-1.5277803E-2,-1.4125576E0,4.1847635E-2,-1.26467375E-2,-7.878152E-2],"categories":[],"categories_nodes":[],"categories_segments":[],"categories_sizes":[],"default_left":[0,0,0,0,0,0,0,0,0,0,0],"id":8,"left_children":[1,3,-1,5,7,-1,-1,9,-1,-1,-1],"loss_changes":[9.0299835E0,7.0821724E0,0E0,2.0002732E0,7.624611E0,0E0,0E0,1.1400928E0,0E0,0E0,0E0],"parents":[2147483647,0,0,1,1,3,3,4,4,7,7],"right_children":[2,4,-1,6,8,-1,-1,10,-1,-1,-1],"split_conditions":[8.118879E-1,3.2115668E-1,5.3011816E-2,5.79729E-1,8.0394816E-1,5.2312084E-2,-1.5277803E-2,2.020913E-1,4.1847635E-2,-1.26467375E-2,-7.878152E-2],"split_indices":[467,247,0,200,582,0,0,111,0,0,0],"split_type":[0,0,0,0,0,0,0,0,0,0,0],"sum_hessian":[1.48501425E1,1.1343198E1,3.5069451E0,3.0560038E0,8.287193E0,1.872551E0,1.183453E0,7.136438E0,1.1507554E0,1.1943538E0,5.9420843E0],"tree_param":{"num_deleted":"0","num_feature":"1280","num_nodes":"11","size_leaf_vector":"1"}},{"base_weights":[-1.02579325E-1,6.620442E-1,-6.9969624E-1,6.486001E-2,-4.638274E-1,1.530456E-1,-6.7197815E-2,2.3512255E-2,-5.4455616E-2,-5.4032397E-2,4.6109315E-2],"categories":[],"categories_nodes":[],"categories_segments":[],"categories_sizes":[],"default_left":[0,0,0,0,0,0,0,0,0,0,0],"id":9,"left_children":[1,3,5,-1,7,9,-1,-1,-1,-1,-1],"loss_changes":[8.317536E0,6.3634143E0,5.7795873E0,0E0,2.6396718E0,5.9916005E0,0E0,0E0,0E0,0E0,0E0],"parents":[2147483647,0,0,1,1,2,2,4,4,5,5],"right_children":[2,4,6,-1,8,10,-1,-1,-1,-1,-1],"split_conditions":[3.2858905E-1,6.6093725E-1,5.807298E-1,6.486001E-2,5.300696E-1,3.8069728E-1,-6.7197815E-2,2.3512255E-2,-5.4455616E-2,-5.4032397E-2,4.6109315E-2],"split_indices":[1105,54,867,0,1127,344,0,0,0,0,0],"split_type":[0,0,0,0,0,0,0,0,0,0,0],"sum_hessian":[1.6202866E1,7.0572023E0,9.145664E0,4.4145675E0,2.6426346E0,4.264123E0,4.881541E0,1.1590923E0,1.4835422E0,1.4820014E0,2.7821217E0],"tree_param":{"num_deleted":"0","num_feature":"1280","num_nodes":"11","size_leaf_vector":"1"}},{"base_weights":[-9.755195E-2,5.9647795E-2,-4.3623963E-1,3.9984804E-1,-1.043858E0,9.492534E-1,-4.230981E-2,-6.982043E-2,1.6759602E-2,5.9365463E-2,2.0115532E-3],"categories":[],"categories_nodes":[],"categories_segments":[],"categories_sizes":[],"default_left":[0,0,0,0,0,0,0,0,0,0,0],"id":10,"left_children":[1,-1,3,5,7,9,-1,-1,-1,-1,-1],"loss_changes":[8.38922E0,0E0,8.034053E0,5.618008E0,4.8241215E0,1.1104579E0,0E0,0E0,0E0,0E0,0E0],"parents":[2147483647,0,0,2,2,3,3,4,4,5,5],"right_children":[2,-1,4,6,8,10,-1,-1,-1,-1,-1],"split_conditions":[1.861359E-1,5.9647795E-2,4.2305192E-1,6.5871763E-1,8.8721097E-1,6.602622E-1,-4.230981E-2,-6.982043E-2,1.6759602E-2,5.9365463E-2,2.0115532E-3],"split_indices":[319,0,485,1235,720,1000,0,0,0,0,0],"split_type":[0,0,0,0,0,0,0,0,0,0,0],"sum_hessian":[1.7003162E1,3.0103772E0,1.39927845E1,6.0331144E0,7.9596696E0,4.3522906E0,1.6808239E0,6.329072E0,1.6305978E0,3.2064445E0,1.1458461E0],"tree_param":{"num_deleted":"0","num_feature":"1280","num_nodes":"11","size_leaf_vector":"1"}},{"base_weights":[-3.8767274E-2,5.1307076E-1,-8.830871E-1,-7.7078176E-1,1.0216265E0,2.3095647E-2,-6.304569E-2,-9.064594E-3,-4.999307E-2,6.503599E-2,-1.3627427E-2],"categories":[],"categories_nodes":[],"categories_segments":[],"categories_sizes":[],"default_left":[0,0,0,0,0,0,0,0,0,0,0],"id":11,"left_children":[1,3,5,7,9,-1,-1,-1,-1,-1,-1],"loss_changes":[7.664401E0,7.3115606E0,3.877945E0,2.7855563E-1,3.0949993E0,0E0,0E0,0E0,0E0,0E0,0E0],"parents":[2147483647,0,0,1,1,2,2,3,3,4,4],"right_children":[2,4,6,8,10,-1,-1,-1,-1,-1,-1],"split_conditions":[6.572526E-1,2.646192E-1,2.2420982E-1,1.1444473E-1,8.4687364E-1,2.3095647E-2,-6.304569E-2,-9.064594E-3,-4.999307E-2,6.503599E-2,-1.3627427E-2],"split_indices":[570,966,420,3,886,0,0,0,0,0,0],"split_type":[0,0,0,0,0,0,0,0,0,0,0],"sum_hessian":[1.4477323E1,8.99235E0,5.484973E0,2.4050796E0,6.58727E0,1.1540813E0,4.3308916E0,1.1743981E0,1.2306815E0,5.4145465E0,1.1727235E0],"tree_param":{"num_deleted":"0","num_feature":"1280","num_nodes":"11","size_leaf_vector":"1"}},{"base_weights":[-2.3791797E-2,-4.3320575E-1,5.1846903E-2,-7.92165E-1,3.896925E-2,-1.1420089E0,3.1442676E-2,2.164011E-2,-7.282027E-2],"categories":[],"categories_nodes":[],"categories_segments":[],"categories_sizes":[],"default_left":[0,0,0,0,0,0,0,0,0],"id":12,"left_children":[1,3,-1,5,-1,7,-1,-1,-1],"loss_changes":[7.220558E0,5.8212094E0,0E0,5.5505753E0,0E0,4.668148E0,0E0,0E0,0E0],"parents":[2147483647,0,0,1,1,3,3,5,5],"right_children":[2,4,-1,6,-1,8,-1,-1,-1],"split_conditions":[6.8848777E-1,7.8020626E-1,5.1846903E-2,8.997493E-1,3.896925E-2,1.11819655E-1,3.1442676E-2,2.164011E-2,-7.282027E-2],"split_indices":[521,997,0,367,0,1040,0,0,0],"split_type":[0,0,0,0,0,0,0,0,0],"sum_hessian":[1.4592216E1,1.09553385E1,3.636877E0,8.720542E0,2.2347963E0,7.155305E0,1.5652369E0,1.1280901E0,6.027215E0],"tree_param":{"num_deleted":"0","num_feature":"1280","num_nodes":"9","size_leaf_vector":"1"}},{"base_weights":[-1.0042987E-2,5.3436924E-2,-5.039314E-1,4.2719375E-2,-9.4206214E-1,-1.27067E0,1.7558165E-2,-7.089502E-2,-1.1801778E-2],"categories":[],"categories_nodes":[],"categories_segments":[],"categories_sizes":[],"default_left":[0,0,0,0,0,0,0,0,0],"id":13,"left_children":[1,-1,3,-1,5,7,-1,-1,-1],"loss_changes":[8.802817E0,0E0,7.541333E0,0E0,4.2855005E0,7.956724E-1,0E0,0E0,0E0],"parents":[2147483647,0,0,2,2,4,4,5,5],"right_children":[2,-1,4,-1,6,8,-1,-1,-1],"split_conditions":[3.366306E-1,5.3436924E-2,1.8543479E-1,4.2719375E-2,7.26667E-1,8.837393E-1,1.7558165E-2,-7.089502E-2,-1.1801778E-2],"split_indices":[1081,0,183,0,606,1218,0,0,0],"split_type":[0,0,0,0,0,0,0,0,0],"sum_hessian":[1.4511042E1,4.191589E0,1.0319452E1,2.2850695E0,8.034383E0,6.420403E0,1.6139799E0,5.296294E0,1.1241086E0],"tree_param":{"num_deleted":"0","num_feature":"1280","num_nodes":"9","size_leaf_vector":"1"}},{"base_weights":[8.487936E-2,-8.4132856E-1,4.983675E-1,-6.314726E-2,2.1050746E-2,6.233732E-2,-1.8916471E-1,6.1522096E-1,-5.224205E-2,5.0510403E-2,-1.336062E-2],"categories":[],"categories_nodes":[],"categories_segments":[],"categories_sizes":[],"default_left":[0,0,0,0,0,0,0,0,0,0,0],"id":14,"left_children":[1,3,5,-1,-1,-1,7,9,-1,-1,-1],"loss_changes":[6.6938972E0,3.4210362E0,6.387131E0,0E0,0E0,0E0,5.5290666E0,1.7647347E0,0E0,0E0,0E0],"parents":[2147483647,0,0,1,1,2,2,6,6,7,7],"right_children":[2,4,6,-1,-1,-1,8,10,-1,-1,-1],"split_conditions":[3.2533032E-1,6.8900436E-1,4.8792616E-1,-6.314726E-2,2.1050746E-2,6.233732E-2,6.365473E-1,6.1125726E-1,-5.224205E-2,5.0510403E-2,-1.336062E-2],"split_indices":[59,580,917,0,0,0,848,359,0,0,0],"split_type":[0,0,0,0,0,0,0,0,0,0,0],"sum_hessian":[1.5383811E1,4.428753E0,1.0955058E1,3.3195596E0,1.1091933E0,4.85597E0,6.099088E0,3.2886126E0,2.8104758E0,2.1717257E0,1.116887E0],"tree_param":{"num_deleted":"0","num_feature":"1280","num_nodes":"11","size_leaf_vector":"1"}},{"base_weights":[-3.0395268E-2,8.984416E-1,-4.370688E-1,5.55439E-2,1.8067993E-3,7.087308E-1,-8.460952E-1,1.4663729E-3,4.9064085E-2,3.8153734E-2,-1.150949E0,-6.913115E-2,7.6477467E-3],"categories":[],"categories_nodes":[],"categories_segments":[],"categories_sizes":[],"default_left":[0,0,0,0,0,0,0,0,0,0,0,0,0],"id":15,"left_children":[1,3,5,-1,-1,7,9,-1,-1,-1,11,-1,-1],"loss_changes":[6.5422287E0,9.2793465E-1,6.2214622E0,0E0,0E0,6.563208E-1,5.4383416E0,0E0,0E0,0E0,2.6926947E0,0E0,0E0],"parents":[2147483647,0,0,1,1,2,2,5,5,6,6,10,10],"right_children":[2,4,6,-1,-1,8,10,-1,-1,-1,12,-1,-1],"split_conditions":[3.366306E-1,6.2188315E-1,2.5962466E-1,5.55439E-2,1.8067993E-3,3.170915E-1,9.394442E-2,1.4663729E-3,4.9064085E-2,3.8153734E-2,8.283465E-1,-6.913115E-2,7.6477467E-3],"split_indices":[1081,338,398,0,0,99,805,0,0,0,822,0,0],"split_type":[0,0,0,0,0,0,0,0,0,0,0,0,0],"sum_hessian":[1.5280129E1,4.2846956E0,1.0995434E1,3.206486E0,1.0782098E0,2.6997995E0,8.295634E0,1.090085E0,1.6097146E0,1.0818753E0,7.213759E0,6.0741496E0,1.1396091E0],"tree_param":{"num_deleted":"0","num_feature":"1280","num_nodes":"13","size_leaf_vector":"1"}},{"base_weights":[-1.0869186E-1,-7.525949E-1,4.373758E-1,3.7121158E-2,-1.1316814E0,9.3854475E-1,-6.9364506E-1,-8.896588E-3,-6.5336466E-2,6.0846355E-2,-1.14473235E-2,-4.237948E-2,-9.965417E-3],"categories":[],"categories_nodes":[],"categories_segments":[],"categories_sizes":[],"default_left":[0,0,0,0,0,0,0,0,0,0,0,0,0],"id":16,"left_children":[1,3,5,-1,7,9,11,-1,-1,-1,-1,-1,-1],"loss_changes":[5.550266E0,4.910295E0,5.563938E0,0E0,7.9008484E-1,2.3687348E0,7.73561E-2,0E0,0E0,0E0,0E0,0E0,0E0],"parents":[2147483647,0,0,1,1,2,2,4,4,5,5,6,6],"right_children":[2,4,6,-1,8,10,12,-1,-1,-1,-1,-1,-1],"split_conditions":[4.466544E-1,9.957999E-2,7.785795E-1,3.7121158E-2,1.7792243E-1,7.5655586E-1,4.5595488E-1,-8.896588E-3,-6.5336466E-2,6.0846355E-2,-1.14473235E-2,-4.237948E-2,-9.965417E-3],"split_indices":[465,1278,1230,0,338,385,173,0,0,0,0,0,0],"split_type":[0,0,0,0,0,0,0,0,0,0,0,0,0],"sum_hessian":[1.3848924E1,6.1815996E0,7.667324E0,1.0565176E0,5.125082E0,5.4309735E0,2.2363508E0,1.1074743E0,4.0176077E0,4.351126E0,1.0798473E0,1.1603876E0,1.0759631E0],"tree_param":{"num_deleted":"0","num_feature":"1280","num_nodes":"13","size_leaf_vector":"1"}},{"base_weights":[3.5849214E-2,-5.3153765E-1,6.443085E-1,2.7882207E-2,-9.499216E-1,1.0141909E0,-3.089982E-2,1.9859424E-2,-6.424388E-2,5.9708565E-2,3.1126682E-3],"categories":[],"categories_nodes":[],"categories_segments":[],"categories_sizes":[],"default_left":[0,0,0,0,0,0,0,0,0,0,0],"id":17,"left_children":[1,3,5,-1,7,9,-1,-1,-1,-1,-1],"loss_changes":[5.568371E0,4.3489113E0,4.2482395E0,0E0,3.4094367E0,1.0182753E0,0E0,0E0,0E0,0E0,0E0],"parents":[2147483647,0,0,1,1,2,2,4,4,5,5],"right_children":[2,4,6,-1,8,10,-1,-1,-1,-1,-1],"split_conditions":[6.1305267E-1,3.1331787E-1,9.154786E-1,2.7882207E-2,1.885591E-1,7.738503E-1,-3.089982E-2,1.9859424E-2,-6.424388E-2,5.9708565E-2,3.1126682E-3],"split_indices":[384,183,788,0,821,915,0,0,0,0,0],"split_type":[0,0,0,0,0,0,0,0,0,0,0],"sum_hessian":[1.4137357E1,7.3810062E0,6.7563505E0,1.9560238E0,5.4249825E0,5.377256E0,1.3790948E0,1.0432991E0,4.3816833E0,4.3082433E0,1.0690124E0],"tree_param":{"num_deleted":"0","num_feature":"1280","num_nodes":"11","size_leaf_vector":"1"}},{"base_weights":[3.0733345E-2,5.0439287E-2,-3.8311958E-1,1.4849168E-1,-5.9806634E-2,5.18108E-2,-5.158327E-1,3.5279207E-2,-5.0584603E-2],"categories":[],"categories_nodes":[],"categories_segments":[],"categories_sizes":[],"default_left":[0,0,0,0,0,0,0,0,0],"id":18,"left_children":[1,-1,3,5,-1,-1,7,-1,-1],"loss_changes":[6.2391562E0,0E0,4.882128E0,4.940429E0,0E0,0E0,3.7062445E0,0E0,0E0],"parents":[2147483647,0,0,2,2,3,3,6,6],"right_children":[2,-1,4,6,-1,-1,8,-1,-1],"split_conditions":[2.4409471E-1,5.0439287E-2,7.6745075E-1,3.2257974E-1,-5.9806634E-2,5.18108E-2,2.9563546E-1,3.5279207E-2,-5.0584603E-2],"split_indices":[628,0,140,751,0,0,135,0,0],"split_type":[0,0,0,0,0,0,0,0,0],"sum_hessian":[1.3459256E1,3.5743954E0,9.884861E0,6.470984E0,3.4138768E0,2.530166E0,3.9408178E0,1.0157752E0,2.9250429E0],"tree_param":{"num_deleted":"0","num_feature":"1280","num_nodes":"9","size_leaf_vector":"1"}},{"base_weights":[8.241628E-2,-4.9468842E-1,8.729013E-1,4.449563E-2,-9.0942615E-1,5.7618756E-2,-1.232422E-2,1.902998E-2,-5.936065E-2],"categories":[],"categories_nodes":[],"categories_segments":[],"categories_sizes":[],"default_left":[0,0,0,0,0,0,0,0,0],"id":19,"left_children":[1,3,5,-1,7,-1,-1,-1,-1],"loss_changes":[6.769028E0,5.7867427E0,2.2310786E0,0E0,3.019256E0,0E0,0E0,0E0,0E0],"parents":[2147483647,0,0,1,1,2,2,4,4],"right_children":[2,4,6,-1,8,-1,-1,-1,-1],"split_conditions":[6.797902E-1,2.5921527E-1,8.577141E-1,4.449563E-2,1.0847828E-1,5.7618756E-2,-1.232422E-2,1.902998E-2,-5.936065E-2],"split_indices":[773,855,932,0,696,0,0,0,0],"split_type":[0,0,0,0,0,0,0,0,0],"sum_hessian":[1.2891531E1,7.6677666E0,5.2237644E0,1.5032951E0,6.1644716E0,4.156542E0,1.0672228E0,1.0266507E0,5.1378207E0],"tree_param":{"num_deleted":"0","num_feature":"1280","num_nodes":"9","size_leaf_vector":"1"}},{"base_weights":[2.817505E-3,6.2948203E-1,-6.2324727E-1,-1.6321212E-1,5.7801224E-2,3.0656362E-2,-1.0213065E0,-4.080915E-2,3.9004724E-2,-6.215499E-2,5.081668E-3],"categories":[],"categories_nodes":[],"categories_segments":[],"categories_sizes":[],"default_left":[0,0,0,0,0,0,0,0,0,0,0],"id":20,"left_children":[1,3,5,7,-1,-1,9,-1,-1,-1,-1],"loss_changes":[6.5544744E0,3.6725972E0,4.740307E0,3.2284908E0,0E0,0E0,1.7947192E0,0E0,0E0,0E0,0E0],"parents":[2147483647,0,0,1,1,2,2,3,3,6,6],"right_children":[2,4,6,8,-1,-1,10,-1,-1,-1,-1],"split_conditions":[5.819261E-1,4.8719177E-1,2.74645E-1,5.2228355E-1,5.7801224E-2,3.0656362E-2,8.2461977E-1,-4.080915E-2,3.9004724E-2,-6.215499E-2,5.081668E-3],"split_indices":[867,73,135,254,0,0,1187,0,0,0,0],"split_type":[0,0,0,0,0,0,0,0,0,0,0],"sum_hessian":[1.4706447E1,7.3469753E0,7.3594713E0,3.2077827E0,4.139192E0,1.6607814E0,5.69869E0,1.9752495E0,1.2325333E0,4.6694217E0,1.0292683E0],"tree_param":{"num_deleted":"0","num_feature":"1280","num_nodes":"11","size_leaf_vector":"1"}},{"base_weights":[1.9513333E-2,5.1259875E-1,-6.542554E-1,-5.4403365E-1,9.8996913E-1,2.7034013E-2,-5.3840924E-2,5.8197696E-3,-4.4269815E-2,3.9358544E-3,5.717011E-2],"categories":[],"categories_nodes":[],"categories_segments":[],"categories_sizes":[],"default_left":[0,0,0,0,0,0,0,0,0,0,0],"id":21,"left_children":[1,3,5,7,9,-1,-1,-1,-1,-1,-1],"loss_changes":[5.1038737E0,5.001844E0,3.8666368E0,8.6933804E-1,8.117571E-1,0E0,0E0,0E0,0E0,0E0,0E0],"parents":[2147483647,0,0,1,1,2,2,3,3,4,4],"right_children":[2,4,6,8,10,-1,-1,-1,-1,-1,-1],"split_conditions":[7.123876E-1,1.9043154E-1,2.0065002E-1,4.017322E-1,2.0319264E-1,2.7034013E-2,-5.3840924E-2,5.8197696E-3,-4.4269815E-2,3.9358544E-3,5.717011E-2],"split_indices":[140,1069,436,148,858,0,0,0,0,0,0],"split_type":[0,0,0,0,0,0,0,0,0,0,0],"sum_hessian":[1.3353213E1,7.8485794E0,5.504634E0,2.398963E0,5.4496164E0,1.3650324E0,4.139601E0,1.0420166E0,1.3569465E0,1.0033971E0,4.446219E0],"tree_param":{"num_deleted":"0","num_feature":"1280","num_nodes":"11","size_leaf_vector":"1"}},{"base_weights":[1.8445173E-1,4.4189793E-1,-4.9017247E-2,-4.7459787E-1,7.437264E-1,-4.6986267E-2,1.9970067E-2,-1.6410609E-1,5.5618066E-2,-4.515731E-2,3.8218044E-2],"categories":[],"categories_nodes":[],"categories_segments":[],"categories_sizes":[],"default_left":[0,0,0,0,0,0,0,0,0,0,0],"id":22,"left_children":[1,3,-1,5,7,-1,-1,9,-1,-1,-1],"loss_changes":[4.8203197E0,3.858076E0,0E0,1.8996065E0,3.5028343E0,0E0,0E0,3.2543392E0,0E0,0E0,0E0],"parents":[2147483647,0,0,1,1,3,3,4,4,7,7],"right_children":[2,4,-1,6,8,-1,-1,10,-1,-1,-1],"split_conditions":[7.920192E-1,2.7873194E-1,-4.9017247E-2,4.6771497E-1,3.1420156E-1,-4.6986267E-2,1.9970067E-2,6.3046646E-1,5.5618066E-2,-4.515731E-2,3.8218044E-2],"split_indices":[657,1050,0,31,567,0,0,364,0,0,0],"split_type":[0,0,0,0,0,0,0,0,0,0,0],"sum_hessian":[1.3629912E1,1.1670985E1,1.9589273E0,2.7495687E0,8.921416E0,1.7454621E0,1.0041066E0,2.7366736E0,6.1847425E0,1.5389631E0,1.1977106E0],"tree_param":{"num_deleted":"0","num_feature":"1280","num_nodes":"11","size_leaf_vector":"1"}},{"base_weights":[-8.500066E-2,3.0148762E-1,-9.4693506E-1,-6.0796785E-1,7.5343925E-1,-5.414891E-2,-1.0732177E-2,-5.0778717E-2,1.721763E-2,-2.2867916E-2,1.0053623E0,5.434927E-3,5.719425E-2],"categories":[],"categories_nodes":[],"categories_segments":[],"categories_sizes":[],"default_left":[0,0,0,0,0,0,0,0,0,0,0,0,0],"id":23,"left_children":[1,3,5,7,9,-1,-1,-1,-1,-1,11,-1,-1],"loss_changes":[5.196947E0,4.953779E0,2.4631453E-1,1.9740024E0,2.82476E0,0E0,0E0,0E0,0E0,0E0,7.1165466E-1,0E0,0E0],"parents":[2147483647,0,0,1,1,2,2,3,3,4,4,10,10],"right_children":[2,4,6,8,10,-1,-1,-1,-1,-1,12,-1,-1],"split_conditions":[8.130512E-1,3.2849893E-1,7.416378E-1,7.5659394E-1,1.0326501E-1,-5.414891E-2,-1.0732177E-2,-5.0778717E-2,1.721763E-2,-2.2867916E-2,2.5177592E-1,5.434927E-3,5.719425E-2],"split_indices":[932,415,67,1062,1237,0,0,0,0,0,241,0,0],"split_type":[0,0,0,0,0,0,0,0,0,0,0,0,0],"sum_hessian":[1.3743475E1,9.937676E0,3.8057985E0,3.1844501E0,6.7532263E0,2.8056781E0,1.0001206E0,2.1834724E0,1.0009776E0,1.0226547E0,5.7305717E0,1.0056504E0,4.724921E0],"tree_param":{"num_deleted":"0","num_feature":"1280","num_nodes":"13","size_leaf_vector":"1"}},{"base_weights":[-3.0263303E-2,4.387639E-2,-3.6452094E-1,4.1376334E-2,-6.783063E-1,2.3480268E-2,-9.165196E-1,-6.0909566E-2,7.132499E-3],"categories":[],"categories_nodes":[],"categories_segments":[],"categories_sizes":[],"default_left":[0,0,0,0,0,0,0,0,0],"id":24,"left_children":[1,-1,3,-1,5,-1,7,-1,-1],"loss_changes":[4.4255257E0,0E0,4.524618E0,0E0,2.874299E0,0E0,2.6469345E0,0E0,0E0],"parents":[2147483647,0,0,2,2,4,4,6,6],"right_children":[2,-1,4,-1,6,-1,8,-1,-1],"split_conditions":[3.1977728E-1,4.387639E-2,1.7519785E-1,4.1376334E-2,2.227687E-1,2.3480268E-2,6.932869E-1,-6.0909566E-2,7.132499E-3],"split_indices":[813,0,1081,0,83,0,717,0,0],"split_type":[0,0,0,0,0,0,0,0,0],"sum_hessian":[1.25305195E1,2.9347894E0,9.595731E0,1.6583898E0,7.9373403E0,1.1971419E0,6.7401986E0,5.129174E0,1.6110244E0],"tree_param":{"num_deleted":"0","num_feature":"1280","num_nodes":"9","size_leaf_vector":"1"}},{"base_weights":[1.2527612E-2,4.023537E-1,-8.394871E-1,-4.124279E-2,6.923333E-1,-5.2963324E-2,-3.9982777E-3,1.0037249E0,-2.2027422E-2,5.6618597E-2,4.9738893E-3],"categories":[],"categories_nodes":[],"categories_segments":[],"categories_sizes":[],"default_left":[0,0,0,0,0,0,0,0,0,0,0],"id":25,"left_children":[1,3,5,-1,7,-1,-1,9,-1,-1,-1],"loss_changes":[5.0073867E0,4.244298E0,7.060871E-1,0E0,3.5792956E0,0E0,0E0,7.342844E-1,0E0,0E0,0E0],"parents":[2147483647,0,0,1,1,2,2,4,4,7,7],"right_children":[2,4,6,-1,8,-1,-1,10,-1,-1,-1],"split_conditions":[6.694553E-1,1.6676529E-1,8.8929045E-1,-4.124279E-2,8.228472E-1,-5.2963324E-2,-3.9982777E-3,9.218062E-1,-2.2027422E-2,5.6618597E-2,4.9738893E-3],"split_indices":[360,871,360,0,867,0,0,248,0,0,0],"split_type":[0,0,0,0,0,0,0,0,0,0,0],"sum_hessian":[1.3059282E1,9.321937E0,3.7373455E0,1.4291528E0,7.892784E0,2.5925121E0,1.1448333E0,6.2804923E0,1.6122918E0,5.277397E0,1.0030951E0],"tree_param":{"num_deleted":"0","num_feature":"1280","num_nodes":"11","size_leaf_vector":"1"}},{"base_weights":[8.254685E-2,5.34708E-1,-6.092591E-1,-3.6141476E-1,5.4409105E-2,-5.336274E-2,1.2846244E-2,2.6061947E-2,-4.5580383E-2],"categories":[],"categories_nodes":[],"categories_segments":[],"categories_sizes":[],"default_left":[0,0,0,0,0,0,0,0,0],"id":26,"left_children":[1,3,5,7,-1,-1,-1,-1,-1],"loss_changes":[4.48134E0,4.642066E0,2.5427008E0,2.4280992E0,0E0,0E0,0E0,0E0,0E0],"parents":[2147483647,0,0,1,1,2,2,3,3],"right_children":[2,4,6,8,-1,-1,-1,-1,-1],"split_conditions":[6.572526E-1,3.9716345E-1,7.351302E-1,2.8863055E-1,5.4409105E-2,-5.336274E-2,1.2846244E-2,2.6061947E-2,-4.5580383E-2],"split_indices":[570,1015,1054,696,0,0,0,0,0],"split_type":[0,0,0,0,0,0,0,0,0],"sum_hessian":[1.2284719E1,7.566424E0,4.7182956E0,3.021446E0,4.5449777E0,2.9345274E0,1.7837682E0,1.1804E0,1.8410459E0],"tree_param":{"num_deleted":"0","num_feature":"1280","num_nodes":"9","size_leaf_vector":"1"}},{"base_weights":[-5.3292923E-2,-5.8477664E-1,4.79698E-1,2.5268538E-2,-8.6708874E-1,-3.3420883E-2,8.533746E-1,-5.7304233E-2,9.846736E-3,5.3584892E-2,-4.3134424E-3],"categories":[],"categories_nodes":[],"categories_segments":[],"categories_sizes":[],"default_left":[0,0,0,0,0,0,0,0,0,0,0],"id":27,"left_children":[1,3,5,-1,7,-1,9,-1,-1,-1,-1],"loss_changes":[4.25869E0,2.7409706E0,3.814322E0,0E0,2.0993066E0,0E0,1.3528156E0,0E0,0E0,0E0,0E0],"parents":[2147483647,0,0,1,1,2,2,4,4,6,6],"right_children":[2,4,6,-1,8,-1,10,-1,-1,-1,-1],"split_conditions":[4.2122725E-1,1.3457626E-1,1.2955828E-1,2.5268538E-2,7.1014506E-1,-3.3420883E-2,8.451782E-1,-5.7304233E-2,9.846736E-3,5.3584892E-2,-4.3134424E-3],"split_indices":[322,301,937,0,210,0,765,0,0,0,0],"split_type":[0,0,0,0,0,0,0,0,0,0,0],"sum_hessian":[1.3043455E1,6.4823127E0,6.5611424E0,1.1708735E0,5.311439E0,1.4174106E0,5.1437316E0,4.1469502E0,1.1644888E0,4.059892E0,1.0838398E0],"tree_param":{"num_deleted":"0","num_feature":"1280","num_nodes":"11","size_leaf_vector":"1"}},{"base_weights":[-7.218283E-2,-8.079796E-1,3.4614158E-1,-5.14058E-2,-1.4165047E-3,6.4020634E-1,-3.9785963E-2,-2.6191328E-2,9.4276154E-1,7.691391E-3,5.34777E-2],"categories":[],"categories_nodes":[],"categories_segments":[],"categories_sizes":[],"default_left":[0,0,0,0,0,0,0,0,0,0,0],"id":28,"left_children":[1,3,5,-1,-1,7,-1,-1,9,-1,-1],"loss_changes":[4.2117276E0,8.1704473E-1,3.479206E0,0E0,0E0,3.165969E0,0E0,0E0,4.7359085E-1,0E0,0E0],"parents":[2147483647,0,0,1,1,2,2,5,5,8,8],"right_children":[2,4,6,-1,-1,8,-1,-1,10,-1,-1],"split_conditions":[3.3037832E-1,6.743257E-1,7.3358136E-1,-5.14058E-2,-1.4165047E-3,8.574771E-2,-3.9785963E-2,-2.6191328E-2,2.8245568E-1,7.691391E-3,5.34777E-2],"split_indices":[181,252,498,0,0,912,0,0,1239,0,0],"split_type":[0,0,0,0,0,0,0,0,0,0,0],"sum_hessian":[1.1774626E1,3.9302273E0,7.844399E0,2.816336E0,1.1138912E0,6.5872955E0,1.2571034E0,1.2080753E0,5.37922E0,1.0512583E0,4.327962E0],"tree_param":{"num_deleted":"0","num_feature":"1280","num_nodes":"11","size_leaf_vector":"1"}},{"base_weights":[-7.44066E-2,4.4133462E-2,-3.197544E-1,5.7705194E-1,-6.9319886E-1,-5.6352927E-3,4.3234184E-2,1.6756004E-2,-9.503792E-1,1.7583605E-3,-5.8119025E-2],"categories":[],"categories_nodes":[],"categories_segments":[],"categories_sizes":[],"default_left":[0,0,0,0,0,0,0,0,0,0,0],"id":29,"left_children":[1,-1,3,5,7,-1,-1,-1,9,-1,-1],"loss_changes":[3.5466971E0,0E0,4.351781E0,8.9395845E-1,2.6417704E0,0E0,0E0,0E0,1.5636206E0,0E0,0E0],"parents":[2147483647,0,0,2,2,3,3,4,4,8,8],"right_children":[2,-1,4,6,8,-1,-1,-1,10,-1,-1],"split_conditions":[1.5676944E-1,4.4133462E-2,3.2389554E-1,5.585795E-1,2.2615716E-1,-5.6352927E-3,4.3234184E-2,1.6756004E-2,3.1770828E-1,1.7583605E-3,-5.8119025E-2],"split_indices":[1046,0,855,695,1151,0,0,0,588,0,0],"split_type":[0,0,0,0,0,0,0,0,0,0,0],"sum_hessian":[1.2902177E1,2.1025863E0,1.0799591E1,3.0147116E0,7.784879E0,1.066159E0,1.9485526E0,1.4968334E0,6.288046E0,1.2608329E0,5.027213E0],"tree_param":{"num_deleted":"0","num_feature":"1280","num_nodes":"11","size_leaf_vector":"1"}},{"base_weights":[6.639546E-2,5.739528E-1,-5.550877E-1,-1.8628215E-2,8.907641E-1,-9.0924513E-1,2.3724517E-2,5.181792E-2,5.981028E-3,-1.2144096E-2,-5.153965E-2],"categories":[],"categories_nodes":[],"categories_segments":[],"categories_sizes":[],"default_left":[0,0,0,0,0,0,0,0,0,0,0],"id":30,"left_children":[1,3,5,-1,7,9,-1,-1,-1,-1,-1],"loss_changes":[4.2485375E0,2.5357583E0,2.6590133E0,0E0,5.273738E-1,1.4557791E-1,0E0,0E0,0E0,0E0,0E0],"parents":[2147483647,0,0,1,1,2,2,4,4,5,5],"right_children":[2,4,6,-1,8,10,-1,-1,-1,-1,-1],"split_conditions":[5.51764E-1,1.9837499E-1,7.069645E-1,-1.8628215E-2,5.9945375E-1,2.7689236E-1,2.3724517E-2,5.181792E-2,5.981028E-3,-1.2144096E-2,-5.153965E-2],"split_indices":[1058,70,890,0,458,519,0,0,0,0,0],"split_type":[0,0,0,0,0,0,0,0,0,0,0],"sum_hessian":[1.1458674E1,6.349554E0,5.1091204E0,1.5481784E0,4.801376E0,3.888439E0,1.2206815E0,3.7495296E0,1.0518463E0,1.06238E0,2.826059E0],"tree_param":{"num_deleted":"0","num_feature":"1280","num_nodes":"11","size_leaf_vector":"1"}},{"base_weights":[6.1592437E-2,6.162803E-1,-4.1091532E-1,5.1131666E-2,-1.6062042E-2,-4.792502E-2,2.0075297E-1,4.031801E-2,-2.242369E-2],"categories":[],"categories_nodes":[],"categories_segments":[],"categories_sizes":[],"default_left":[0,0,0,0,0,0,0,0,0],"id":31,"left_children":[1,3,5,-1,-1,-1,7,-1,-1],"loss_changes":[3.7485695E0,2.8179765E0,2.8054652E0,0E0,0E0,0E0,2.1356242E0,0E0,0E0],"parents":[2147483647,0,0,1,1,2,2,6,6],"right_children":[2,4,6,-1,-1,-1,8,-1,-1],"split_conditions":[4.501894E-1,7.1976143E-1,5.832896E-1,5.1131666E-2,-1.6062042E-2,-4.792502E-2,5.2306396E-1,4.031801E-2,-2.242369E-2],"split_indices":[957,418,480,0,0,0,102,0,0],"split_type":[0,0,0,0,0,0,0,0,0],"sum_hessian":[1.2336154E1,5.5346375E0,6.801516E0,3.7977722E0,1.7368655E0,3.2895653E0,3.511951E0,1.6917928E0,1.820158E0],"tree_param":{"num_deleted":"0","num_feature":"1280","num_nodes":"9","size_leaf_vector":"1"}},{"base_weights":[-4.1525587E-2,-6.35278E-1,4.1021988E-1,-4.9793925E-2,2.334669E-2,-3.1059653E-1,4.653503E-2,2.5040938E-2,-4.3751072E-2],"categories":[],"categories_nodes":[],"categories_segments":[],"categories_sizes":[],"default_left":[0,0,0,0,0,0,0,0,0],"id":32,"left_children":[1,3,5,-1,-1,7,-1,-1,-1],"loss_changes":[3.7202797E0,2.8360841E0,3.2652354E0,0E0,0E0,2.3049846E0,0E0,0E0,0E0],"parents":[2147483647,0,0,1,1,2,2,5,5],"right_children":[2,4,6,-1,-1,8,-1,-1,-1],"split_conditions":[3.3836818E-1,7.0772135E-1,4.4993162E-1,-4.9793925E-2,2.334669E-2,4.6044567E-1,4.653503E-2,2.5040938E-2,-4.3751072E-2],"split_indices":[717,198,922,0,0,781,0,0,0],"split_type":[0,0,0,0,0,0,0,0,0],"sum_hessian":[1.1898412E1,4.965597E0,6.932815E0,3.8142097E0,1.1513873E0,3.076041E0,3.8567739E0,1.3081462E0,1.7678946E0],"tree_param":{"num_deleted":"0","num_feature":"1280","num_nodes":"9","size_leaf_vector":"1"}},{"base_weights":[3.6768492E-2,-5.4257315E-1,5.685684E-1,1.47025455E-2,-9.140273E-1,8.4268314E-1,-2.455098E-2,-5.0583225E-2,-1.3648569E-2,5.192208E-2,-2.4705755E-3],"categories":[],"categories_nodes":[],"categories_segments":[],"categories_sizes":[],"default_left":[0,0,0,0,0,0,0,0,0,0,0],"id":33,"left_children":[1,3,5,-1,7,9,-1,-1,-1,-1,-1],"loss_changes":[4.324099E0,2.3663652E0,2.5294008E0,0E0,3.1651497E-2,1.1262054E0,0E0,0E0,0E0,0E0,0E0],"parents":[2147483647,0,0,1,1,2,2,4,4,5,5],"right_children":[2,4,6,-1,8,10,-1,-1,-1,-1,-1],"split_conditions":[5.6347543E-1,3.2130626E-1,8.87157E-1,1.47025455E-2,6.421102E-1,7.7018714E-1,-2.455098E-2,-5.0583225E-2,-1.3648569E-2,5.192208E-2,-2.4705755E-3],"split_indices":[506,247,54,0,563,672,0,0,0,0,0],"split_type":[0,0,0,0,0,0,0,0,0,0,0],"sum_hessian":[1.2033722E1,5.749726E0,6.2839966E0,1.8319697E0,3.917756E0,5.155086E0,1.1289107E0,2.8982158E0,1.0195402E0,4.092903E0,1.0621825E0],"tree_param":{"num_deleted":"0","num_feature":"1280","num_nodes":"11","size_leaf_vector":"1"}},{"base_weights":[-2.3996115E-2,-5.9904456E-1,5.0179666E-1,-5.0915983E-2,9.470597E-3,7.838251E-1,-2.5278265E-2,-5.2947626E-3,5.0187405E-2],"categories":[],"categories_nodes":[],"categories_segments":[],"categories_sizes":[],"default_left":[0,0,0,0,0,0,0,0,0],"id":34,"left_children":[1,3,5,-1,-1,7,-1,-1,-1],"loss_changes":[3.9211378E0,2.234262E0,2.3279781E0,0E0,0E0,1.2224247E0,0E0,0E0,0E0],"parents":[2147483647,0,0,1,1,2,2,5,5],"right_children":[2,4,6,-1,-1,8,-1,-1,-1],"split_conditions":[5.971053E-1,5.937702E-1,7.9689294E-1,-5.0915983E-2,9.470597E-3,1.8178149E-1,-2.5278265E-2,-5.2947626E-3,5.0187405E-2],"split_indices":[384,164,741,0,0,52,0,0,0],"split_type":[0,0,0,0,0,0,0,0,0],"sum_hessian":[1.0974412E1,5.175146E0,5.7992654E0,3.188221E0,1.9869255E0,4.704158E0,1.0951074E0,1.0350895E0,3.6690683E0],"tree_param":{"num_deleted":"0","num_feature":"1280","num_nodes":"9","size_leaf_vector":"1"}},{"base_weights":[-9.733627E-2,5.7469475E-1,-4.6100155E-1,4.5557275E-2,-1.5383526E-2,-8.4284717E-1,4.2633566E-1,6.7801448E-3,-5.3232133E-2,-2.7275558E-3,3.4457143E-2],"categories":[],"categories_nodes":[],"categories_segments":[],"categories_sizes":[],"default_left":[0,0,0,0,0,0,0,0,0,0,0],"id":35,"left_children":[1,3,5,-1,-1,7,9,-1,-1,-1,-1],"loss_changes":[3.1402736E0,1.6388882E0,3.1339579E0,0E0,0E0,1.4597287E0,4.3288702E-1,0E0,0E0,0E0,0E0],"parents":[2147483647,0,0,1,1,2,2,5,5,6,6],"right_children":[2,4,6,-1,-1,8,10,-1,-1,-1,-1],"split_conditions":[2.5346512E-1,6.575117E-1,7.2356206E-1,4.5557275E-2,-1.5383526E-2,3.128829E-1,4.0709966E-1,6.7801448E-3,-5.3232133E-2,-2.7275558E-3,3.4457143E-2],"split_indices":[372,1037,606,0,0,135,248,0,0,0,0],"split_type":[0,0,0,0,0,0,0,0,0,0,0],"sum_hessian":[1.076516E1,3.5762272E0,7.1889324E0,2.5654063E0,1.0108207E0,5.061128E0,2.127804E0,1.0070671E0,4.0540614E0,1.0319543E0,1.0958496E0],"tree_param":{"num_deleted":"0","num_feature":"1280","num_nodes":"11","size_leaf_vector":"1"}},{"base_weights":[5.6368817E-2,3.9193347E-1,-3.7218027E-2,7.166647E-1,-2.3492852E-2,-7.836584E-3,5.024118E-2],"categories":[],"categories_nodes":[],"categories_segments":[],"categories_sizes":[],"default_left":[0,0,0,0,0,0,0],"id":36,"left_children":[1,3,-1,5,-1,-1,-1],"loss_changes":[3.2966807E0,2.725491E0,0E0,1.8174801E0,0E0,0E0,0E0],"parents":[2147483647,0,0,1,1,3,3],"right_children":[2,4,-1,6,-1,-1,-1],"split_conditions":[6.7955184E-1,7.511537E-1,-3.7218027E-2,3.090955E-1,-2.3492852E-2,-7.836584E-3,5.024118E-2],"split_indices":[761,619,0,606,0,0,0],"split_type":[0,0,0,0,0,0,0],"sum_hessian":[1.0183404E1,7.5358543E0,2.6475494E0,5.595729E0,1.9401255E0,1.5013372E0,4.0943913E0],"tree_param":{"num_deleted":"0","num_feature":"1280","num_nodes":"7","size_leaf_vector":"1"}},{"base_weights":[1.0245109E-1,5.876528E-1,-3.5366172E-1,-1.7008562E-2,4.903302E-2,3.9976996E-1,-7.817067E-1,3.322227E-2,-4.0536583E-3,-3.973014E-3,-4.7580834E-2],"categories":[],"categories_nodes":[],"categories_segments":[],"categories_sizes":[],"default_left":[0,0,0,0,0,0,0,0,0,0,0],"id":37,"left_children":[1,3,5,-1,-1,7,9,-1,-1,-1,-1],"loss_changes":[2.8572996E0,2.5858748E0,2.503985E0,0E0,0E0,4.5139182E-1,4.8180628E-1,0E0,0E0,0E0,0E0],"parents":[2147483647,0,0,1,1,2,2,5,5,6,6],"right_children":[2,4,6,-1,-1,8,10,-1,-1,-1,-1],"split_conditions":[5.819261E-1,2.6667818E-1,2.8567588E-1,-1.7008562E-2,4.903302E-2,6.901183E-1,2.9043204E-1,3.322227E-2,-4.0536583E-3,-3.973014E-3,-4.7580834E-2],"split_indices":[867,322,1105,0,0,707,741,0,0,0,0],"split_type":[0,0,0,0,0,0,0,0,0,0,0],"sum_hessian":[1.0971933E1,5.1766963E0,5.7952375E0,1.5803053E0,3.596391E0,2.1235268E0,3.6717105E0,1.1233536E0,1.0001731E0,1.0012314E0,2.6704793E0],"tree_param":{"num_deleted":"0","num_feature":"1280","num_nodes":"11","size_leaf_vector":"1"}},{"base_weights":[-5.007218E-2,-3.8243148E-1,6.912404E-1,3.5594553E-1,-7.288876E-1,8.92318E-3,4.0710818E-2,3.6447532E-2,-1.3534422E-2,-4.9247067E-2,1.176919E-2],"categories":[],"categories_nodes":[],"categories_segments":[],"categories_sizes":[],"default_left":[0,0,0,0,0,0,0,0,0,0,0],"id":38,"left_children":[1,3,5,7,9,-1,-1,-1,-1,-1,-1],"loss_changes":[3.0992649E0,2.4564354E0,1.0175586E-1,9.954498E-1,1.7561202E0,0E0,0E0,0E0,0E0,0E0,0E0],"parents":[2147483647,0,0,1,1,2,2,3,3,4,4],"right_children":[2,4,6,8,10,-1,-1,-1,-1,-1,-1],"split_conditions":[7.5901216E-1,4.5726836E-1,4.4536883E-1,6.0256237E-1,7.003747E-1,8.92318E-3,4.0710818E-2,3.6447532E-2,-1.3534422E-2,-4.9247067E-2,1.176919E-2],"split_indices":[606,90,13,205,524,0,0,0,0,0,0],"split_type":[0,0,0,0,0,0,0,0,0,0,0],"sum_hessian":[1.0506161E1,7.588194E0,2.917967E0,2.4146452E0,5.1735487E0,1.0385791E0,1.8793881E0,1.4112914E0,1.0033537E0,4.0710754E0,1.1024734E0],"tree_param":{"num_deleted":"0","num_feature":"1280","num_nodes":"11","size_leaf_vector":"1"}},{"base_weights":[-5.4055527E-2,3.7468594E-2,-3.484545E-1,-7.6540875E-1,4.823799E-1,-5.0411846E-2,1.1477896E-2,-6.6034445E-3,3.9252058E-2],"categories":[],"categories_nodes":[],"categories_segments":[],"categories_sizes":[],"default_left":[0,0,0,0,0,0,0,0,0],"id":39,"left_children":[1,-1,3,5,7,-1,-1,-1,-1],"loss_changes":[3.0094385E0,0E0,3.5514586E0,1.8026357E0,7.8860307E-1,0E0,0E0,0E0,0E0],"parents":[2147483647,0,0,2,2,3,3,4,4],"right_children":[2,-1,4,6,8,-1,-1,-1,-1],"split_conditions":[1.4999835E-1,3.7468594E-2,6.8570673E-1,7.7180547E-1,4.2068312E-1,-5.0411846E-2,1.1477896E-2,-6.6034445E-3,3.9252058E-2],"split_indices":[1,0,312,435,1227,0,0,0,0],"split_type":[0,0,0,0,0,0,0,0,0],"sum_hessian":[1.0619404E1,2.4333253E0,8.186078E0,5.5030966E0,2.682982E0,4.412789E0,1.0903076E0,1.0714384E0,1.6115435E0],"tree_param":{"num_deleted":"0","num_feature":"1280","num_nodes":"9","size_leaf_vector":"1"}},{"base_weights":[-7.617674E-2,-4.25023E-1,6.191402E-1,3.2355037E-2,-7.027612E-1,2.8124623E-4,4.1681882E-2,1.3913447E-2,-9.3652314E-1,-1.3391341E-2,-5.1121205E-2],"categories":[],"categories_nodes":[],"categories_segments":[],"categories_sizes":[],"default_left":[0,0,0,0,0,0,0,0,0,0,0],"id":40,"left_children":[1,3,5,-1,7,-1,-1,-1,9,-1,-1],"loss_changes":[2.9174995E0,2.801204E0,5.299984E-1,0E0,1.8058388E0,0E0,0E0,0E0,5.1894188E-2,0E0,0E0],"parents":[2147483647,0,0,1,1,2,2,4,4,8,8],"right_children":[2,4,6,-1,8,-1,-1,-1,10,-1,-1],"split_conditions":[5.9123117E-1,2.5481763E-1,1.8520172E-1,3.2355037E-2,2.6998684E-1,2.8124623E-4,4.1681882E-2,1.3913447E-2,1.2743281E-1,-1.3391341E-2,-5.1121205E-2],"split_indices":[113,1081,832,0,880,0,0,0,712,0,0],"split_type":[0,0,0,0,0,0,0,0,0,0,0],"sum_hessian":[9.943128E0,6.8800726E0,3.0630546E0,1.1419661E0,5.7381067E0,1.0593312E0,2.0037234E0,1.0675437E0,4.6705627E0,1.0004457E0,3.6701171E0],"tree_param":{"num_deleted":"0","num_feature":"1280","num_nodes":"11","size_leaf_vector":"1"}},{"base_weights":[3.954844E-2,5.2020067E-1,-4.8558754E-1,4.7518406E-2,-1.660066E-2,3.0436072E-2,-4.2631697E-2],"categories":[],"categories_nodes":[],"categories_segments":[],"categories_sizes":[],"default_left":[0,0,0,0,0,0,0],"id":41,"left_children":[1,3,5,-1,-1,-1,-1],"loss_changes":[2.968644E0,2.5521336E0,2.7922292E0,0E0,0E0,0E0,0E0],"parents":[2147483647,0,0,1,1,2,2],"right_children":[2,4,6,-1,-1,-1,-1],"split_conditions":[5.819261E-1,7.4960494E-1,2.5143605E-1,4.7518406E-2,-1.660066E-2,3.0436072E-2,-4.2631697E-2],"split_indices":[867,1096,1081,0,0,0,0],"split_type":[0,0,0,0,0,0,0],"sum_hessian":[9.760528E0,5.1010137E0,4.659514E0,3.3133674E0,1.7876463E0,1.0049455E0,3.6545684E0],"tree_param":{"num_deleted":"0","num_feature":"1280","num_nodes":"7","size_leaf_vector":"1"}},{"base_weights":[2.4111647E-2,-6.758518E-1,4.2666322E-1,2.6843522E-3,-4.569428E-2,-2.6172673E-2,6.763063E-1,4.567976E-2,-7.250957E-3],"categories":[],"categories_nodes":[],"categories_segments":[],"categories_sizes":[],"default_left":[0,0,0,0,0,0,0,0,0],"id":42,"left_children":[1,3,5,-1,-1,-1,7,-1,-1],"loss_changes":[3.4365962E0,8.2469225E-1,2.1819248E0,0E0,0E0,0E0,1.4069355E0,0E0,0E0],"parents":[2147483647,0,0,1,1,2,2,6,6],"right_children":[2,4,6,-1,-1,-1,8,-1,-1],"split_conditions":[4.7961724E-1,3.028979E-1,9.636587E-2,2.6843522E-3,-4.569428E-2,-2.6172673E-2,7.542629E-1,4.567976E-2,-7.250957E-3],"split_indices":[542,617,1257,0,0,0,197,0,0],"split_type":[0,0,0,0,0,0,0,0,0],"sum_hessian":[1.0173012E1,3.4664938E0,6.7065177E0,1.0433215E0,2.4231722E0,1.1672548E0,5.539263E0,4.2104735E0,1.3287894E0],"tree_param":{"num_deleted":"0","num_feature":"1280","num_nodes":"9","size_leaf_vector":"1"}},{"base_weights":[1.8909346E-2,-5.774259E-1,3.5947517E-1,1.025487E-2,-4.434341E-2,-3.2640044E-2,6.1798054E-1,8.487858E-1,-1.47403395E-2,9.490482E-3,4.7653027E-2],"categories":[],"categories_nodes":[],"categories_segments":[],"categories_sizes":[],"default_left":[0,0,0,0,0,0,0,0,0,0,0],"id":43,"left_children":[1,3,5,-1,-1,-1,7,9,-1,-1,-1],"loss_changes":[2.43674E0,1.2409327E0,2.392866E0,0E0,0E0,0E0,1.634325E0,1.9714189E-1,0E0,0E0,0E0],"parents":[2147483647,0,0,1,1,2,2,6,6,7,7],"right_children":[2,4,6,-1,-1,-1,8,10,-1,-1,-1],"split_conditions":[3.084782E-1,4.910336E-1,8.7614246E-2,1.025487E-2,-4.434341E-2,-3.2640044E-2,6.7955184E-1,2.3596363E-1,-1.47403395E-2,9.490482E-3,4.7653027E-2],"split_indices":[742,192,953,0,0,0,761,673,0,0,0],"split_type":[0,0,0,0,0,0,0,0,0,0,0],"sum_hessian":[9.976189E0,3.3735566E0,6.6026325E0,1.0515589E0,2.321998E0,1.0328453E0,5.569787E0,4.5016317E0,1.0681554E0,1.0003142E0,3.5013175E0],"tree_param":{"num_deleted":"0","num_feature":"1280","num_nodes":"11","size_leaf_vector":"1"}},{"base_weights":[-1.1926169E-1,-5.1693857E-1,5.285091E-1,1.4649709E-1,-4.211945E-2,4.2040672E-2,-1.0877102E-2,-9.00134E-3,2.0181155E-2],"categories":[],"categories_nodes":[],"categories_segments":[],"categories_sizes":[],"default_left":[0,0,0,0,0,0,0,0,0],"id":44,"left_children":[1,3,5,7,-1,-1,-1,-1,-1],"loss_changes":[2.8181465E0,1.5542467E0,1.1737096E0,3.272907E-1,0E0,0E0,0E0,0E0,0E0],"parents":[2147483647,0,0,1,1,2,2,3,3],"right_children":[2,4,6,8,-1,-1,-1,-1,-1],"split_conditions":[7.4572617E-1,3.4044057E-1,5.456436E-1,4.3592167E-1,-4.211945E-2,4.2040672E-2,-1.0877102E-2,-9.00134E-3,2.0181155E-2],"split_indices":[1218,588,183,512,0,0,0,0,0],"split_type":[0,0,0,0,0,0,0,0,0],"sum_hessian":[8.879291E0,5.62685E0,3.2524407E0,2.0328064E0,3.5940437E0,2.2031584E0,1.0492823E0,1.027648E0,1.0051583E0],"tree_param":{"num_deleted":"0","num_feature":"1280","num_nodes":"9","size_leaf_vector":"1"}},{"base_weights":[5.8000647E-2,-4.429879E-1,5.338201E-1,1.4974387E-2,-7.3205787E-1,-2.3650203E-2,4.3394145E-2,-4.3972235E-2,-6.23152E-3],"categories":[],"categories_nodes":[],"categories_segments":[],"categories_sizes":[],"default_left":[0,0,0,0,0,0,0,0,0],"id":45,"left_children":[1,3,5,-1,7,-1,-1,-1,-1],"loss_changes":[2.68904E0,1.4121791E0,2.3378506E0,0E0,2.745483E-1,0E0,0E0,0E0,0E0],"parents":[2147483647,0,0,1,1,2,2,4,4],"right_children":[2,4,6,-1,8,-1,-1,-1,-1],"split_conditions":[5.6347543E-1,2.9623672E-1,1.9424167E-1,1.4974387E-2,6.230098E-1,-2.3650203E-2,4.3394145E-2,-4.3972235E-2,-6.23152E-3],"split_indices":[506,636,1082,0,544,0,0,0,0],"split_type":[0,0,0,0,0,0,0,0,0],"sum_hessian":[9.288462E0,4.558175E0,4.730286E0,1.2672381E0,3.2909372E0,1.074864E0,3.655422E0,2.2879648E0,1.0029724E0],"tree_param":{"num_deleted":"0","num_feature":"1280","num_nodes":"9","size_leaf_vector":"1"}},{"base_weights":[9.0051234E-2,5.899243E-1,-3.2797787E-1,4.0994443E-2,-8.4706955E-3,3.371985E-2,-6.9214267E-1,-4.6869196E-2,4.3733143E-3],"categories":[],"categories_nodes":[],"categories_segments":[],"categories_sizes":[],"default_left":[0,0,0,0,0,0,0,0,0],"id":46,"left_children":[1,3,5,-1,-1,-1,7,-1,-1],"loss_changes":[2.3770783E0,1.0323168E0,2.778671E0,0E0,0E0,0E0,1.064558E0,0E0,0E0],"parents":[2147483647,0,0,1,1,2,2,6,6],"right_children":[2,4,6,-1,-1,-1,8,-1,-1],"split_conditions":[4.664504E-1,7.726736E-1,1.8043104E-1,4.0994443E-2,-8.4706955E-3,3.371985E-2,5.116667E-1,-4.6869196E-2,4.3733143E-3],"split_indices":[308,759,183,0,0,0,704,0,0],"split_type":[0,0,0,0,0,0,0,0,0],"sum_hessian":[9.449756E0,4.1163187E0,5.333437E0,3.0982702E0,1.0180484E0,1.1942703E0,4.139167E0,2.9947367E0,1.14443E0],"tree_param":{"num_deleted":"0","num_feature":"1280","num_nodes":"9","size_leaf_vector":"1"}},{"base_weights":[-3.1001283E-2,3.5798874E-1,-5.692577E-1,4.515579E-2,-3.0837923E-1,1.1064063E-2,-4.19519E-2,1.6853383E-2,-3.7529215E-2],"categories":[],"categories_nodes":[],"categories_segments":[],"categories_sizes":[],"default_left":[0,0,0,0,0,0,0,0,0],"id":47,"left_children":[1,3,5,-1,7,-1,-1,-1,-1],"loss_changes":[2.3973053E0,2.7106326E0,1.2053275E0,0E0,1.3256407E0,0E0,0E0,0E0,0E0],"parents":[2147483647,0,0,1,1,2,2,4,4],"right_children":[2,4,6,-1,8,-1,-1,-1,-1],"split_conditions":[5.4294044E-1,5.6159925E-1,3.0877787E-1,4.515579E-2,3.6782506E-1,1.1064063E-2,-4.19519E-2,1.6853383E-2,-3.7529215E-2],"split_indices":[781,561,252,0,1185,0,0,0,0],"split_type":[0,0,0,0,0,0,0,0,0],"sum_hessian":[9.476433E0,5.6953773E0,3.7810557E0,2.9372547E0,2.7581224E0,1.0077658E0,2.77329E0,1.2180306E0,1.540092E0],"tree_param":{"num_deleted":"0","num_feature":"1280","num_nodes":"9","size_leaf_vector":"1"}},{"base_weights":[1.9894514E-2,3.3541113E-1,-5.9744006E-1,6.614996E-1,-2.589016E-2,-1.7152702E-3,-3.9696034E-2,-6.4713242E-3,4.634676E-2],"categories":[],"categories_nodes":[],"categories_segments":[],"categories_sizes":[],"default_left":[0,0,0,0,0,0,0,0,0],"id":48,"left_children":[1,3,5,7,-1,-1,-1,-1,-1],"loss_changes":[2.1520097E0,2.3655357E0,3.8751543E-1,1.3165641E0,0E0,0E0,0E0,0E0,0E0],"parents":[2147483647,0,0,1,1,2,2,3,3],"right_children":[2,4,6,8,-1,-1,-1,-1,-1],"split_conditions":[6.018549E-1,7.0815575E-1,4.4621882E-1,2.8195834E-1,-2.589016E-2,-1.7152702E-3,-3.9696034E-2,-6.4713242E-3,4.634676E-2],"split_indices":[764,1212,821,1050,0,0,0,0,0],"split_type":[0,0,0,0,0,0,0,0,0],"sum_hessian":[9.019655E0,6.2711697E0,2.748485E0,4.6996975E0,1.571472E0,1.0147374E0,1.7337477E0,1.3096615E0,3.390036E0],"tree_param":{"num_deleted":"0","num_feature":"1280","num_nodes":"9","size_leaf_vector":"1"}},{"base_weights":[-4.6032898E-2,3.3657115E-2,-3.6917934E-1,-6.877106E-1,2.4479145E-2,7.210045E-4,-4.5901448E-2],"categories":[],"categories_nodes":[],"categories_segments":[],"categories_sizes":[],"default_left":[0,0,0,0,0,0,0],"id":49,"left_children":[1,-1,3,5,-1,-1,-1],"loss_changes":[2.703113E0,0E0,2.5067968E0,1.016304E0,0E0,0E0,0E0],"parents":[2147483647,0,0,2,2,3,3],"right_children":[2,-1,4,6,-1,-1,-1],"split_conditions":[3.2389554E-1,3.3657115E-2,7.779755E-1,2.6366758E-1,2.4479145E-2,7.210045E-4,-4.5901448E-2],"split_indices":[855,0,651,720,0,0,0],"split_type":[0,0,0,0,0,0,0],"sum_hessian":[9.562025E0,2.6286883E0,6.9333367E0,5.202729E0,1.7306074E0,1.5166323E0,3.686097E0],"tree_param":{"num_deleted":"0","num_feature":"1280","num_nodes":"7","size_leaf_vector":"1"}},{"base_weights":[9.596622E-3,2.6530647E-1,-3.3249132E-2,6.3584924E-1,-3.4517774E-1,4.6275306E-2,-1.5276851E-2,1.468902E-2,-3.7688196E-2],"categories":[],"categories_nodes":[],"categories_segments":[],"categories_sizes":[],"default_left":[0,0,0,0,0,0,0,0,0],"id":50,"left_children":[1,3,-1,5,7,-1,-1,-1,-1],"loss_changes":[2.007506E0,2.122405E0,0E0,1.8061464E0,1.2201631E0,0E0,0E0,0E0,0E0],"parents":[2147483647,0,0,1,1,3,3,4,4],"right_children":[2,4,-1,6,8,-1,-1,-1,-1],"split_conditions":[8.577141E-1,7.082108E-1,-3.3249132E-2,8.228472E-1,4.428915E-1,4.6275306E-2,-1.5276851E-2,1.468902E-2,-3.7688196E-2],"split_indices":[932,1127,0,867,917,0,0,0,0],"split_type":[0,0,0,0,0,0,0,0,0],"sum_hessian":[9.615178E0,7.4121823E0,2.2029958E0,4.5866785E0,2.8255038E0,3.520361E0,1.0663176E0,1.21166E0,1.6138438E0],"tree_param":{"num_deleted":"0","num_feature":"1280","num_nodes":"9","size_leaf_vector":"1"}},{"base_weights":[5.129157E-2,-3.8003626E-1,5.241117E-1,2.375279E-2,-6.753951E-1,-1.210782E-2,4.0337082E-2,-4.5694545E-2,5.2281306E-3],"categories":[],"categories_nodes":[],"categories_segments":[],"categories_sizes":[],"default_left":[0,0,0,0,0,0,0,0,0],"id":51,"left_children":[1,3,5,-1,7,-1,-1,-1,-1],"loss_changes":[2.385711E0,1.8832783E0,1.394079E0,0E0,1.0277007E0,0E0,0E0,0E0,0E0],"parents":[2147483647,0,0,1,1,2,2,4,4],"right_children":[2,4,6,-1,8,-1,-1,-1,-1],"split_conditions":[6.1305267E-1,3.3568746E-1,2.8428662E-1,2.375279E-2,8.7167215E-1,-1.210782E-2,4.0337082E-2,-4.5694545E-2,5.2281306E-3],"split_indices":[384,855,1050,0,26,0,0,0,0],"split_type":[0,0,0,0,0,0,0,0,0],"sum_hessian":[9.721411E0,5.1863885E0,4.5350223E0,1.1753205E0,4.011068E0,1.2605673E0,3.2744548E0,2.9402716E0,1.0707964E0],"tree_param":{"num_deleted":"0","num_feature":"1280","num_nodes":"9","size_leaf_vector":"1"}},{"base_weights":[-1.8071212E-2,3.88218E-2,-2.9336044E-1,2.4419174E-1,-7.741077E-1,-2.2088429E-2,3.1625967E-2,-4.4183265E-2,-9.83329E-3],"categories":[],"categories_nodes":[],"categories_segments":[],"categories_sizes":[],"default_left":[0,0,0,0,0,0,0,0,0],"id":52,"left_children":[1,-1,3,5,7,-1,-1,-1,-1],"loss_changes":[2.4250517E0,0E0,2.3047006E0,1.5114802E0,1.1478925E-1,0E0,0E0,0E0,0E0],"parents":[2147483647,0,0,2,2,3,3,4,4],"right_children":[2,-1,4,6,8,-1,-1,-1,-1],"split_conditions":[1.8543479E-1,3.88218E-2,4.9992102E-1,5.026383E-1,6.5329057E-1,-2.2088429E-2,3.1625967E-2,-4.4183265E-2,-9.83329E-3],"split_indices":[183,0,308,977,34,0,0,0,0],"split_type":[0,0,0,0,0,0,0,0,0],"sum_hessian":[9.046101E0,1.8593699E0,7.1867313E0,3.6252174E0,3.5615137E0,1.2606777E0,2.3645396E0,2.5478091E0,1.0137045E0],"tree_param":{"num_deleted":"0","num_feature":"1280","num_nodes":"9","size_leaf_vector":"1"}},{"base_weights":[-4.6739575E-2,-3.5844382E-2,2.915971E-1,-2.960109E-1,3.74754E-2,-3.4174543E-2,1.9500388E-2],"categories":[],"categories_nodes":[],"categories_segments":[],"categories_sizes":[],"default_left":[0,0,0,0,0,0,0],"id":53,"left_children":[1,-1,3,5,-1,-1,-1],"loss_changes":[2.3713658E0,0E0,2.1183167E0,1.2776814E0,0E0,0E0,0E0],"parents":[2147483647,0,0,2,2,3,3],"right_children":[2,-1,4,6,-1,-1,-1],"split_conditions":[3.2533032E-1,-3.5844382E-2,5.3385866E-1,6.210419E-1,3.74754E-2,-3.4174543E-2,1.9500388E-2],"split_indices":[59,0,534,70,0,0,0],"split_type":[0,0,0,0,0,0,0],"sum_hessian":[8.536759E0,2.4886324E0,6.048127E0,2.8037782E0,3.2443488E0,1.7941076E0,1.0096707E0],"tree_param":{"num_deleted":"0","num_feature":"1280","num_nodes":"7","size_leaf_vector":"1"}},{"base_weights":[5.1288594E-2,-3.4738224E-2,3.2006603E-1,-1.8299075E-2,6.223553E-1,-1.6093226E-3,4.4242483E-2],"categories":[],"categories_nodes":[],"categories_segments":[],"categories_sizes":[],"default_left":[0,0,0,0,0,0,0],"id":54,"left_children":[1,-1,3,-1,5,-1,-1],"loss_changes":[2.142838E0,0E0,1.8298986E0,0E0,1.0134578E0,0E0,0E0],"parents":[2147483647,0,0,2,2,4,4],"right_children":[2,-1,4,-1,6,-1,-1],"split_conditions":[1.2955828E-1,-3.4738224E-2,3.633859E-1,-1.8299075E-2,3.82205E-1,-1.6093226E-3,4.4242483E-2],"split_indices":[937,0,503,0,1015,0,0],"split_type":[0,0,0,0,0,0,0],"sum_hessian":[8.577331E0,1.8519409E0,6.7253895E0,1.9925604E0,4.732829E0,1.6058787E0,3.1269505E0],"tree_param":{"num_deleted":"0","num_feature":"1280","num_nodes":"7","size_leaf_vector":"1"}},{"base_weights":[-6.681711E-2,2.813915E-1,-6.0820204E-1,-1.801394E-2,6.6107213E-1,-3.9195657E-2,-2.8067974E-3,4.5278566E-3,4.051591E-2],"categories":[],"categories_nodes":[],"categories_segments":[],"categories_sizes":[],"default_left":[0,0,0,0,0,0,0,0,0],"id":55,"left_children":[1,3,5,-1,7,-1,-1,-1,-1],"loss_changes":[1.8672109E0,1.7386954E0,3.2829213E-1,0E0,2.8612828E-1,0E0,0E0,0E0,0E0],"parents":[2147483647,0,0,1,1,2,2,4,4],"right_children":[2,4,6,-1,8,-1,-1,-1,-1],"split_conditions":[6.1025846E-1,4.4406858E-1,5.4227495E-1,-1.801394E-2,1.7258345E-1,-3.9195657E-2,-2.8067974E-3,4.5278566E-3,4.051591E-2],"split_indices":[691,1022,576,0,1027,0,0,0,0],"split_type":[0,0,0,0,0,0,0,0,0],"sum_hessian":[7.9969964E0,5.1590376E0,2.8379586E0,1.9368352E0,3.2222025E0,1.8342063E0,1.0037522E0,1.0013103E0,2.2208922E0],"tree_param":{"num_deleted":"0","num_feature":"1280","num_nodes":"9","size_leaf_vector":"1"}},{"base_weights":[-6.8548135E-2,3.4005716E-2,-3.2116368E-1,-5.928037E-1,2.569892E-2,-4.027371E-2,4.2108926E-3],"categories":[],"categories_nodes":[],"categories_segments":[],"categories_sizes":[],"default_left":[0,0,0,0,0,0,0],"id":56,"left_children":[1,-1,3,5,-1,-1,-1],"loss_changes":[1.8152217E0,0E0,1.8909296E0,8.94366E-1,0E0,0E0,0E0],"parents":[2147483647,0,0,2,2,3,3],"right_children":[2,-1,4,6,-1,-1,-1],"split_conditions":[1.854795E-1,3.4005716E-2,8.361134E-1,7.312055E-1,2.569892E-2,-4.027371E-2,4.2108926E-3],"split_indices":[1081,0,564,580,0,0,0],"split_type":[0,0,0,0,0,0,0],"sum_hessian":[7.443113E0,1.450893E0,5.99222E0,4.740494E0,1.2517263E0,3.4629552E0,1.2775385E0],"tree_param":{"num_deleted":"0","num_feature":"1280","num_nodes":"7","size_leaf_vector":"1"}},{"base_weights":[-6.5847225E-2,4.4279245E-1,-4.0887794E-1,3.9560337E-2,-1.1170946E-2,-6.794723E-1,1.53785795E-2,-4.4005957E-2,-2.2642771E-4],"categories":[],"categories_nodes":[],"categories_segments":[],"categories_sizes":[],"default_left":[0,0,0,0,0,0,0,0,0],"id":57,"left_children":[1,3,5,-1,-1,7,-1,-1,-1],"loss_changes":[1.8613858E0,1.1885812E0,1.4248356E0,0E0,0E0,6.54701E-1,0E0,0E0,0E0],"parents":[2147483647,0,0,1,1,2,2,5,5],"right_children":[2,4,6,-1,-1,8,-1,-1,-1],"split_conditions":[4.5445472E-1,6.3174593E-1,7.2591454E-1,3.9560337E-2,-1.1170946E-2,6.8570673E-1,1.53785795E-2,-4.4005957E-2,-2.2642771E-4],"split_indices":[588,1188,662,0,0,312,0,0,0],"split_type":[0,0,0,0,0,0,0,0,0],"sum_hessian":[8.630599E0,3.3590448E0,5.2715545E0,2.0823822E0,1.2766625E0,3.86384E0,1.4077145E0,2.7440903E0,1.1197499E0],"tree_param":{"num_deleted":"0","num_feature":"1280","num_nodes":"9","size_leaf_vector":"1"}},{"base_weights":[-1.0198289E-1,-3.2511297E-1,3.3242688E-2,3.1529404E-2,-5.9610796E-1,1.1942936E-2,-4.231221E-2],"categories":[],"categories_nodes":[],"categories_segments":[],"categories_sizes":[],"default_left":[0,0,0,0,0,0,0],"id":58,"left_children":[1,3,-1,-1,5,-1,-1],"loss_changes":[1.7607096E0,2.3607934E0,0E0,0E0,1.5565486E0,0E0,0E0],"parents":[2147483647,0,0,1,1,4,4],"right_children":[2,4,-1,-1,6,-1,-1],"split_conditions":[8.0486935E-1,1.4120759E-1,3.3242688E-2,3.1529404E-2,3.366306E-1,1.1942936E-2,-4.231221E-2],"split_indices":[340,83,0,0,1081,0,0],"split_type":[0,0,0,0,0,0,0],"sum_hessian":[8.02699E0,6.6639752E0,1.3630149E0,1.1790297E0,5.484946E0,1.2747738E0,4.2101717E0],"tree_param":{"num_deleted":"0","num_feature":"1280","num_nodes":"7","size_leaf_vector":"1"}},{"base_weights":[-1.2706313E-1,-5.2278864E-1,3.5665387E-1,9.659051E-3,-3.8348563E-2,3.5981204E-2,-1.5720656E-2],"categories":[],"categories_nodes":[],"categories_segments":[],"categories_sizes":[],"default_left":[0,0,0,0,0,0,0],"id":59,"left_children":[1,3,5,-1,-1,-1,-1],"loss_changes":[1.8642639E0,1.0619147E0,1.3317391E0,0E0,0E0,0E0,0E0],"parents":[2147483647,0,0,1,1,2,2],"right_children":[2,4,6,-1,-1,-1,-1],"split_conditions":[6.1305267E-1,2.427488E-1,6.1302185E-1,9.659051E-3,-3.8348563E-2,3.5981204E-2,-1.5720656E-2],"split_indices":[384,1037,741,0,0,0,0],"split_type":[0,0,0,0,0,0,0],"sum_hessian":[7.7651057E0,4.2265887E0,3.538517E0,1.1280096E0,3.0985794E0,2.2494597E0,1.2890573E0],"tree_param":{"num_deleted":"0","num_feature":"1280","num_nodes":"7","size_leaf_vector":"1"}},{"base_weights":[-9.478339E-2,-3.9407012E-1,4.887386E-1,1.302132E-2,-7.122477E-1,3.3203892E-2,1.8363455E-3,-4.2565454E-2,-6.661482E-3],"categories":[],"categories_nodes":[],"categories_segments":[],"categories_sizes":[],"default_left":[0,0,0,0,0,0,0,0,0],"id":60,"left_children":[1,3,5,-1,7,-1,-1,-1,-1],"loss_changes":[1.712565E0,1.4987783E0,2.4483961E-1,0E0,2.4982047E-1,0E0,0E0,0E0,0E0],"parents":[2147483647,0,0,1,1,2,2,4,4],"right_children":[2,4,6,-1,8,-1,-1,-1,-1],"split_conditions":[6.83513E-1,3.4471527E-1,7.545457E-1,1.302132E-2,7.132399E-1,3.3203892E-2,1.8363455E-3,-4.2565454E-2,-6.661482E-3],"split_indices":[773,682,622,0,565,0,0,0,0],"split_type":[0,0,0,0,0,0,0,0,0],"sum_hessian":[7.703415E0,5.3064313E0,2.3969834E0,1.7951944E0,3.5112371E0,1.3890127E0,1.0079708E0,2.4520674E0,1.0591699E0],"tree_param":{"num_deleted":"0","num_feature":"1280","num_nodes":"9","size_leaf_vector":"1"}},{"base_weights":[3.7230194E-2,-4.9686274E-1,3.3845875E-1,-3.6199495E-2,1.3012867E-3,6.97684E-1,-1.5593873E-2,4.067961E-2,7.6595494E-3],"categories":[],"categories_nodes":[],"categories_segments":[],"categories_sizes":[],"default_left":[0,0,0,0,0,0,0,0,0],"id":61,"left_children":[1,3,5,-1,-1,7,-1,-1,-1],"loss_changes":[1.6092151E0,4.505695E-1,1.6944814E0,0E0,0E0,1.5187407E-1,0E0,0E0,0E0],"parents":[2147483647,0,0,1,1,2,2,5,5],"right_children":[2,4,6,-1,-1,8,-1,-1,-1],"split_conditions":[4.7961724E-1,3.6340395E-1,6.7776966E-1,-3.6199495E-2,1.3012867E-3,5.9151894E-1,-1.5593873E-2,4.067961E-2,7.6595494E-3],"split_indices":[542,67,619,0,0,1109,0,0,0],"split_type":[0,0,0,0,0,0,0,0,0],"sum_hessian":[7.957058E0,2.6352236E0,5.3218346E0,1.5690694E0,1.0661541E0,3.3813035E0,1.9405309E0,2.3803666E0,1.0009367E0],"tree_param":{"num_deleted":"0","num_feature":"1280","num_nodes":"9","size_leaf_vector":"1"}},{"base_weights":[-3.3244032E-2,4.0630955E-1,-5.071636E-1,3.4079924E-2,-1.5324648E-2,-3.793383E-2,8.0136955E-3],"categories":[],"categories_nodes":[],"categories_segments":[],"categories_sizes":[],"default_left":[0,0,0,0,0,0,0],"id":62,"left_children":[1,3,5,-1,-1,-1,-1],"loss_changes":[1.87135E0,1.1316905E0,8.4200585E-1,0E0,0E0,0E0,0E0],"parents":[2147483647,0,0,1,1,2,2],"right_children":[2,4,6,-1,-1,-1,-1],"split_conditions":[5.738628E-1,7.805387E-1,5.577058E-1,3.4079924E-2,-1.5324648E-2,-3.793383E-2,8.0136955E-3],"split_indices":[485,1016,113,0,0,0,0],"split_type":[0,0,0,0,0,0,0],"sum_hessian":[6.9941454E0,3.702651E0,3.2914944E0,2.7026477E0,1.0000033E0,2.2913396E0,1.0001547E0],"tree_param":{"num_deleted":"0","num_feature":"1280","num_nodes":"7","size_leaf_vector":"1"}},{"base_weights":[-6.0747016E-2,-5.5510956E-1,4.5040232E-1,3.3701458E-3,-3.9215125E-2,3.674466E-2,-1.415093E-2],"categories":[],"categories_nodes":[],"categories_segments":[],"categories_sizes":[],"default_left":[0,0,0,0,0,0,0],"id":63,"left_children":[1,3,5,-1,-1,-1,-1],"loss_changes":[2.3167245E0,7.099644E-1,1.162183E0,0E0,0E0,0E0,0E0],"parents":[2147483647,0,0,1,1,2,2],"right_children":[2,4,6,-1,-1,-1,-1],"split_conditions":[4.2122725E-1,1.6596437E-1,6.911526E-1,3.3701458E-3,-3.9215125E-2,3.674466E-2,-1.415093E-2],"split_indices":[322,234,1042,0,0,0,0],"split_type":[0,0,0,0,0,0,0],"sum_hessian":[7.1787057E0,3.605557E0,3.5731485E0,1.1602114E0,2.4453456E0,2.5730615E0,1.000087E0],"tree_param":{"num_deleted":"0","num_feature":"1280","num_nodes":"7","size_leaf_vector":"1"}},{"base_weights":[6.2335707E-2,-2.2598189E-1,3.315661E-2,3.1156376E-1,-5.563142E-1,-7.0373565E-3,2.985478E-2,6.77151E-4,-3.9624706E-2],"categories":[],"categories_nodes":[],"categories_segments":[],"categories_sizes":[],"default_left":[0,0,0,0,0,0,0,0,0],"id":64,"left_children":[1,3,-1,5,7,-1,-1,-1,-1],"loss_changes":[1.6077906E0,1.3156583E0,0E0,4.8305959E-1,5.9532917E-1,0E0,0E0,0E0,0E0],"parents":[2147483647,0,0,1,1,3,3,4,4],"right_children":[2,4,-1,6,8,-1,-1,-1,-1],"split_conditions":[6.707801E-1,4.2333886E-1,3.315661E-2,2.625086E-1,3.2853547E-1,-7.0373565E-3,2.985478E-2,6.77151E-4,-3.9624706E-2],"split_indices":[1226,660,0,254,163,0,0,0,0],"split_type":[0,0,0,0,0,0,0,0,0],"sum_hessian":[7.4166555E0,5.433178E0,1.9834776E0,2.0896058E0,3.3435724E0,1.004867E0,1.0847387E0,1.2559243E0,2.087648E0],"tree_param":{"num_deleted":"0","num_feature":"1280","num_nodes":"9","size_leaf_vector":"1"}},{"base_weights":[6.676025E-2,4.910344E-1,-2.472764E-1,3.7316836E-2,-5.7234406E-3,-5.636869E-1,2.4087785E-2,-8.0377766E-4,-3.899267E-2],"categories":[],"categories_nodes":[],"categories_segments":[],"categories_sizes":[],"default_left":[0,0,0,0,0,0,0,0,0],"id":65,"left_children":[1,3,5,-1,-1,7,-1,-1,-1],"loss_changes":[1.2274824E0,6.830458E-1,1.5253917E0,0E0,0E0,4.907056E-1,0E0,0E0,0E0],"parents":[2147483647,0,0,1,1,2,2,5,5],"right_children":[2,4,6,-1,-1,8,-1,-1,-1],"split_conditions":[4.5445472E-1,5.813436E-1,7.7425104E-1,3.7316836E-2,-5.7234406E-3,5.807298E-1,2.4087785E-2,-8.0377766E-4,-3.899267E-2],"split_indices":[588,779,1260,0,0,867,0,0,0],"split_type":[0,0,0,0,0,0,0,0,0],"sum_hessian":[7.301419E0,2.865887E0,4.4355316E0,1.8523E0,1.0135869E0,3.251245E0,1.1842866E0,1.2242465E0,2.0269985E0],"tree_param":{"num_deleted":"0","num_feature":"1280","num_nodes":"9","size_leaf_vector":"1"}},{"base_weights":[-6.805909E-2,3.0867794E-1,-5.6210035E-1,3.747903E-2,-1.8970455E-1,-3.738081E-2,-1.3881371E-3,1.2933386E-2,-2.9038107E-2],"categories":[],"categories_nodes":[],"categories_segments":[],"categories_sizes":[],"default_left":[0,0,0,0,0,0,0,0,0],"id":66,"left_children":[1,3,5,-1,7,-1,-1,-1,-1],"loss_changes":[1.6366955E0,1.2641187E0,3.5153568E-1,0E0,7.1037525E-1,0E0,0E0,0E0,0E0],"parents":[2147483647,0,0,1,1,2,2,4,4],"right_children":[2,4,6,-1,8,-1,-1,-1,-1],"split_conditions":[5.634022E-1,3.331138E-1,6.180638E-1,3.747903E-2,4.780371E-1,-3.738081E-2,-1.3881371E-3,1.2933386E-2,-2.9038107E-2],"split_indices":[764,1233,931,0,233,0,0,0,0],"split_type":[0,0,0,0,0,0,0,0,0],"sum_hessian":[6.8613734E0,4.105712E0,2.7556612E0,1.9110457E0,2.1946664E0,1.7492098E0,1.0064515E0,1.1801234E0,1.0145428E0],"tree_param":{"num_deleted":"0","num_feature":"1280","num_nodes":"9","size_leaf_vector":"1"}},{"base_weights":[-2.0086978E-2,3.4529317E-2,-2.6874292E-1,-3.705282E-2,1.02436855E-1,-1.9369641E-2,4.9768054E-1,6.4884215E-3,3.0430024E-2],"categories":[],"categories_nodes":[],"categories_segments":[],"categories_sizes":[],"default_left":[0,0,0,0,0,0,0,0,0],"id":67,"left_children":[1,-1,3,-1,5,-1,7,-1,-1],"loss_changes":[1.72697E0,0E0,1.3349249E0,0E0,1.1414165E0,0E0,4.9547434E-2,0E0,0E0],"parents":[2147483647,0,0,2,2,4,4,6,6],"right_children":[2,-1,4,-1,6,-1,8,-1,-1],"split_conditions":[2.6461437E-1,3.4529317E-2,4.3603307E-1,-3.705282E-2,3.792411E-1,-1.9369641E-2,4.2095983E-1,6.4884215E-3,3.0430024E-2],"split_indices":[247,0,506,0,692,0,979,0,0],"split_type":[0,0,0,0,0,0,0,0,0],"sum_hessian":[7.722497E0,1.5409875E0,6.1815095E0,2.2816718E0,3.8998375E0,1.7504052E0,2.1494324E0,1.0005665E0,1.1488659E0],"tree_param":{"num_deleted":"0","num_feature":"1280","num_nodes":"9","size_leaf_vector":"1"}},{"base_weights":[2.9444586E-2,-4.6276107E-1,3.3950484E-1,-3.551581E-2,3.5137031E-3,6.1931556E-1,-1.7070135E-2,3.9628003E-2,1.2496695E-3],"categories":[],"categories_nodes":[],"categories_segments":[],"categories_sizes":[],"default_left":[0,0,0,0,0,0,0,0,0],"id":68,"left_children":[1,3,5,-1,-1,7,-1,-1,-1],"loss_changes":[1.3949897E0,5.194161E-1,1.2694615E0,0E0,0E0,4.2202485E-1,0E0,0E0,0E0],"parents":[2147483647,0,0,1,1,2,2,5,5],"right_children":[2,4,6,-1,-1,8,-1,-1,-1],"split_conditions":[4.0494192E-1,5.7431304E-1,6.1025846E-1,-3.551581E-2,3.5137031E-3,6.392487E-1,-1.7070135E-2,3.9628003E-2,1.2496695E-3],"split_indices":[59,12,691,0,0,130,0,0,0],"split_type":[0,0,0,0,0,0,0,0,0],"sum_hessian":[7.1112146E0,2.55801E0,4.5532045E0,1.5196553E0,1.0383548E0,3.291187E0,1.2620178E0,2.290078E0,1.0011091E0],"tree_param":{"num_deleted":"0","num_feature":"1280","num_nodes":"9","size_leaf_vector":"1"}},{"base_weights":[1.2589575E-2,3.1861123E-2,-2.6048356E-1,1.9690465E-2,-4.9387175E-1,-3.7476283E-2,9.046097E-3],"categories":[],"categories_nodes":[],"categories_segments":[],"categories_sizes":[],"default_left":[0,0,0,0,0,0,0],"id":69,"left_children":[1,-1,3,-1,5,-1,-1],"loss_changes":[1.5388947E0,0E0,1.1581094E0,0E0,1.0145425E0,0E0,0E0],"parents":[2147483647,0,0,2,2,4,4],"right_children":[2,-1,4,-1,6,-1,-1],"split_conditions":[2.227687E-1,3.1861123E-2,3.0959797E-1,1.9690465E-2,7.023562E-1,-3.7476283E-2,9.046097E-3],"split_indices":[83,0,463,0,970,0,0],"split_type":[0,0,0,0,0,0,0],"sum_hessian":[7.0489244E0,1.7385675E0,5.3103566E0,1.2154744E0,4.0948825E0,2.889436E0,1.2054464E0],"tree_param":{"num_deleted":"0","num_feature":"1280","num_nodes":"7","size_leaf_vector":"1"}},{"base_weights":[-7.733777E-2,3.991245E-1,-4.4900197E-1,3.5217334E-2,-8.20529E-3,7.755544E-3,-3.9458647E-2],"categories":[],"categories_nodes":[],"categories_segments":[],"categories_sizes":[],"default_left":[0,0,0,0,0,0,0],"id":70,"left_children":[1,3,5,-1,-1,-1,-1],"loss_changes":[1.5091647E0,7.723813E-1,1.0861623E0,0E0,0E0,0E0,0E0],"parents":[2147483647,0,0,1,1,2,2],"right_children":[2,4,6,-1,-1,-1,-1],"split_conditions":[4.6044567E-1,5.8689636E-1,3.2066473E-1,3.5217334E-2,-8.20529E-3,7.755544E-3,-3.9458647E-2],"split_indices":[781,561,319,0,0,0,0],"split_type":[0,0,0,0,0,0,0],"sum_hessian":[6.5103183E0,2.8205605E0,3.6897578E0,1.6667681E0,1.1537924E0,1.5251861E0,2.1645718E0],"tree_param":{"num_deleted":"0","num_feature":"1280","num_nodes":"7","size_leaf_vector":"1"}},{"base_weights":[-3.1974673E-2,4.684729E-1,-4.8528874E-1,-8.5253855E-3,3.775759E-2,-3.8908463E-2,5.5476553E-3],"categories":[],"categories_nodes":[],"categories_segments":[],"categories_sizes":[],"default_left":[0,0,0,0,0,0,0],"id":71,"left_children":[1,3,5,-1,-1,-1,-1],"loss_changes":[1.9336301E0,8.7680745E-1,8.612833E-1,0E0,0E0,0E0,0E0],"parents":[2147483647,0,0,1,1,2,2],"right_children":[2,4,6,-1,-1,-1,-1],"split_conditions":[5.819261E-1,4.3470386E-1,5.719643E-1,-8.5253855E-3,3.775759E-2,-3.8908463E-2,5.5476553E-3],"split_indices":[867,59,415,0,0,0,0],"split_type":[0,0,0,0,0,0,0],"sum_hessian":[6.5213165E0,3.0836277E0,3.4376888E0,1.0805078E0,2.00312E0,2.1006856E0,1.3370034E0],"tree_param":{"num_deleted":"0","num_feature":"1280","num_nodes":"7","size_leaf_vector":"1"}},{"base_weights":[-5.1061984E-2,-3.5504285E-1,2.5974784E-2,1.6457042E-2,-6.1756015E-1,-5.5770744E-3,-3.7281264E-2],"categories":[],"categories_nodes":[],"categories_segments":[],"categories_sizes":[],"default_left":[0,0,0,0,0,0,0],"id":72,"left_children":[1,3,-1,-1,5,-1,-1],"loss_changes":[1.4576161E0,1.1701436E0,0E0,0E0,1.9147706E-1,0E0,0E0],"parents":[2147483647,0,0,1,1,4,4],"right_children":[2,4,-1,-1,6,-1,-1],"split_conditions":[6.434277E-1,1.8043104E-1,2.5974784E-2,1.6457042E-2,2.6667893E-1,-5.5770744E-3,-3.7281264E-2],"split_indices":[851,183,0,0,398,0,0],"split_type":[0,0,0,0,0,0,0],"sum_hessian":[6.3407702E0,4.383214E0,1.957556E0,1.1450776E0,3.2381365E0,1.0318806E0,2.206256E0],"tree_param":{"num_deleted":"0","num_feature":"1280","num_nodes":"7","size_leaf_vector":"1"}},{"base_weights":[5.408067E-2,-3.6794412E-1,4.1730982E-1,-3.2894265E-2,8.998564E-3,-8.272505E-3,3.4739424E-2],"categories":[],"categories_nodes":[],"categories_segments":[],"categories_sizes":[],"default_left":[0,0,0,0,0,0,0],"id":73,"left_children":[1,3,5,-1,-1,-1,-1],"loss_changes":[1.2787243E0,7.422076E-1,8.2861716E-1,0E0,0E0,0E0,0E0],"parents":[2147483647,0,0,1,1,2,2],"right_children":[2,4,6,-1,-1,-1,-1],"split_conditions":[3.71896E-1,5.1457936E-1,3.1135285E-1,-3.2894265E-2,8.998564E-3,-8.272505E-3,3.4739424E-2],"split_indices":[1229,1160,663,0,0,0,0],"split_type":[0,0,0,0,0,0,0],"sum_hessian":[6.3401084E0,2.926693E0,3.4134152E0,1.7826563E0,1.1440367E0,1.231261E0,2.1821542E0],"tree_param":{"num_deleted":"0","num_feature":"1280","num_nodes":"7","size_leaf_vector":"1"}},{"base_weights":[-5.6282233E-2,4.4962728E-1,-4.1958216E-1,3.036887E-2,2.5954095E-3,8.90757E-3,-3.30019E-2],"categories":[],"categories_nodes":[],"categories_segments":[],"categories_sizes":[],"default_left":[0,0,0,0,0,0,0],"id":74,"left_children":[1,3,5,-1,-1,-1,-1],"loss_changes":[1.3808601E0,1.6885608E-1,7.34565E-1,0E0,0E0,0E0,0E0],"parents":[2147483647,0,0,1,1,2,2],"right_children":[2,4,6,-1,-1,-1,-1],"split_conditions":[3.782296E-1,7.038686E-1,3.0494365E-1,3.036887E-2,2.5954095E-3,8.90757E-3,-3.30019E-2],"split_indices":[191,3,867,0,0,0,0],"split_type":[0,0,0,0,0,0,0],"sum_hessian":[5.4865327E0,2.1938667E0,3.292666E0,1.1933773E0,1.0004895E0,1.0189166E0,2.2737494E0],"tree_param":{"num_deleted":"0","num_feature":"1280","num_nodes":"7","size_leaf_vector":"1"}},{"base_weights":[2.088331E-2,-5.4057837E-1,3.5414612E-1,-3.2845333E-2,-6.730554E-3,3.2401305E-2,-9.979258E-3],"categories":[],"categories_nodes":[],"categories_segments":[],"categories_sizes":[],"default_left":[0,0,0,0,0,0,0],"id":75,"left_children":[1,3,5,-1,-1,-1,-1],"loss_changes":[1.6698134E0,6.92451E-2,1.0344741E0,0E0,0E0,0E0,0E0],"parents":[2147483647,0,0,1,1,2,2],"right_children":[2,4,6,-1,-1,-1,-1],"split_conditions":[4.7961724E-1,6.2431085E-1,6.449551E-1,-3.2845333E-2,-6.730554E-3,3.2401305E-2,-9.979258E-3],"split_indices":[542,923,360,0,0,0,0],"split_type":[0,0,0,0,0,0,0],"sum_hessian":[6.900891E0,2.3387032E0,4.5621877E0,1.3373604E0,1.0013427E0,2.8691587E0,1.693029E0],"tree_param":{"num_deleted":"0","num_feature":"1280","num_nodes":"7","size_leaf_vector":"1"}},{"base_weights":[2.2663604E-3,3.956121E-1,-4.2286214E-1,-8.757133E-3,3.2853194E-2,3.469113E-3,-3.4213845E-2],"categories":[],"categories_nodes":[],"categories_segments":[],"categories_sizes":[],"default_left":[0,0,0,0,0,0,0],"id":76,"left_children":[1,3,5,-1,-1,-1,-1],"loss_changes":[1.2788999E0,7.074221E-1,5.207658E-1,0E0,0E0,0E0,0E0],"parents":[2147483647,0,0,1,1,2,2],"right_children":[2,4,6,-1,-1,-1,-1],"split_conditions":[5.738628E-1,4.2985722E-1,3.544366E-1,-8.757133E-3,3.2853194E-2,3.469113E-3,-3.4213845E-2],"split_indices":[485,59,407,0,0,0,0],"split_type":[0,0,0,0,0,0,0],"sum_hessian":[5.647494E0,2.9694607E0,2.6780334E0,1.0366175E0,1.9328433E0,1.1837045E0,1.4943287E0],"tree_param":{"num_deleted":"0","num_feature":"1280","num_nodes":"7","size_leaf_vector":"1"}},{"base_weights":[3.867878E-2,-2.6103857E-1,2.6428157E-2,-3.18741E-2,1.328741E-2],"categories":[],"categories_nodes":[],"categories_segments":[],"categories_sizes":[],"default_left":[0,0,0,0,0],"id":77,"left_children":[1,3,-1,-1,-1],"loss_changes":[1.2264253E0,1.2142155E0,0E0,0E0,0E0],"parents":[2147483647,0,0,1,1],"right_children":[2,4,-1,-1,-1],"split_conditions":[6.743598E-1,5.870081E-1,2.6428157E-2,-3.18741E-2,1.328741E-2],"split_indices":[851,33,0,0,0],"split_type":[0,0,0,0,0],"sum_hessian":[6.413153E0,4.26867E0,2.1444829E0,2.3670418E0,1.9016283E0],"tree_param":{"num_deleted":"0","num_feature":"1280","num_nodes":"5","size_leaf_vector":"1"}},{"base_weights":[7.1982615E-2,-3.1287637E-1,4.769457E-1,8.836997E-3,-3.1631622E-2,-4.124698E-3,3.5591584E-2],"categories":[],"categories_nodes":[],"categories_segments":[],"categories_sizes":[],"default_left":[0,0,0,0,0,0,0],"id":78,"left_children":[1,3,5,-1,-1,-1,-1],"loss_changes":[1.2240262E0,7.599204E-1,5.523398E-1,0E0,0E0,0E0,0E0],"parents":[2147483647,0,0,1,1,2,2],"right_children":[2,4,6,-1,-1,-1,-1],"split_conditions":[6.1305267E-1,5.0302947E-1,4.7756386E-1,8.836997E-3,-3.1631622E-2,-4.124698E-3,3.5591584E-2],"split_indices":[384,485,700,0,0,0,0],"split_type":[0,0,0,0,0,0,0],"sum_hessian":[5.8962197E0,3.1397426E0,2.7564769E0,1.4171078E0,1.7226348E0,1.0069546E0,1.7495224E0],"tree_param":{"num_deleted":"0","num_feature":"1280","num_nodes":"7","size_leaf_vector":"1"}},{"base_weights":[4.7607392E-2,3.71906E-1,-3.56321E-1,3.224474E-2,-1.0205711E-2,-3.2531705E-2,8.945633E-3],"categories":[],"categories_nodes":[],"categories_segments":[],"categories_sizes":[],"default_left":[0,0,0,0,0,0,0],"id":79,"left_children":[1,3,5,-1,-1,-1,-1],"loss_changes":[1.1040212E0,8.5543966E-1,7.171224E-1,0E0,0E0,0E0,0E0],"parents":[2147483647,0,0,1,1,2,2],"right_children":[2,4,6,-1,-1,-1,-1],"split_conditions":[6.443657E-1,7.969684E-1,6.1181754E-1,3.224474E-2,-1.0205711E-2,-3.2531705E-2,8.945633E-3],"split_indices":[570,677,1002,0,0,0,0],"split_type":[0,0,0,0,0,0,0],"sum_hessian":[6.4164286E0,3.6029975E0,2.8134313E0,2.3633733E0,1.2396241E0,1.6761473E0,1.1372839E0],"tree_param":{"num_deleted":"0","num_feature":"1280","num_nodes":"7","size_leaf_vector":"1"}},{"base_weights":[3.186399E-2,4.8857945E-1,-2.8351185E-1,5.4951925E-3,3.054196E-2,8.92669E-3,-2.874271E-2],"categories":[],"categories_nodes":[],"categories_segments":[],"categories_sizes":[],"default_left":[0,0,0,0,0,0,0],"id":80,"left_children":[1,3,5,-1,-1,-1,-1],"loss_changes":[1.1373004E0,8.09983E-2,7.3997086E-1,0E0,0E0,0E0,0E0],"parents":[2147483647,0,0,1,1,2,2],"right_children":[2,4,6,-1,-1,-1,-1],"split_conditions":[4.5445472E-1,3.9801073E-1,4.4569424E-1,5.4951925E-3,3.054196E-2,8.92669E-3,-2.874271E-2],"split_indices":[588,479,855,0,0,0,0],"split_type":[0,0,0,0,0,0,0],"sum_hessian":[5.934206E0,2.1996126E0,3.7345936E0,1.0003041E0,1.1993084E0,1.593938E0,2.1406558E0],"tree_param":{"num_deleted":"0","num_feature":"1280","num_nodes":"7","size_leaf_vector":"1"}},{"base_weights":[-3.1675198E-3,-2.7098104E-1,2.5102878E-2,1.4061931E-2,-5.486375E-1,-3.6681414E-2,-7.0281763E-4],"categories":[],"categories_nodes":[],"categories_segments":[],"categories_sizes":[],"default_left":[0,0,0,0,0,0,0],"id":81,"left_children":[1,3,-1,-1,5,-1,-1],"loss_changes":[1.0919777E0,9.6184313E-1,0E0,0E0,3.6978674E-1,0E0,0E0],"parents":[2147483647,0,0,1,1,4,4],"right_children":[2,4,-1,-1,6,-1,-1],"split_conditions":[6.791288E-1,3.501887E-1,2.5102878E-2,1.4061931E-2,6.874507E-1,-3.6681414E-2,-7.0281763E-4],"split_indices":[33,1204,0,0,417,0,0],"split_type":[0,0,0,0,0,0,0],"sum_hessian":[6.064941E0,4.266804E0,1.7981367E0,1.4232528E0,2.8435514E0,1.8358996E0,1.0076517E0],"tree_param":{"num_deleted":"0","num_feature":"1280","num_nodes":"7","size_leaf_vector":"1"}},{"base_weights":[-4.2686228E-2,2.5129175E-2,-3.0013278E-1,-6.1073977E-1,1.34057095E-2,-7.808345E-3,-3.6164537E-2],"categories":[],"categories_nodes":[],"categories_segments":[],"categories_sizes":[],"default_left":[0,0,0,0,0,0,0],"id":82,"left_children":[1,-1,3,5,-1,-1,-1],"loss_changes":[1.1204526E0,0E0,1.1023827E0,7.8576684E-2,0E0,0E0,0E0],"parents":[2147483647,0,0,2,2,3,3],"right_children":[2,-1,4,6,-1,-1,-1],"split_conditions":[3.2389554E-1,2.5129175E-2,5.144321E-1,6.439423E-1,1.34057095E-2,-7.808345E-3,-3.6164537E-2],"split_indices":[855,0,180,844,0,0,0],"split_type":[0,0,0,0,0,0,0],"sum_hessian":[5.9071517E0,1.5891529E0,4.317999E0,2.7435694E0,1.5744295E0,1.0183122E0,1.7252572E0],"tree_param":{"num_deleted":"0","num_feature":"1280","num_nodes":"7","size_leaf_vector":"1"}},{"base_weights":[2.4507219E-2,-4.0472567E-1,3.8035452E-1,3.4635912E-3,-3.369309E-2,-1.151147E-2,3.221379E-2],"categories":[],"categories_nodes":[],"categories_segments":[],"categories_sizes":[],"default_left":[0,0,0,0,0,0,0],"id":83,"left_children":[1,3,5,-1,-1,-1,-1],"loss_changes":[1.2543389E0,5.2505773E-1,8.661404E-1,0E0,0E0,0E0,0E0],"parents":[2147483647,0,0,1,1,2,2],"right_children":[2,4,6,-1,-1,-1,-1],"split_conditions":[4.204905E-1,4.8008743E-1,2.6686078E-1,3.4635912E-3,-3.369309E-2,-1.151147E-2,3.221379E-2],"split_indices":[1015,546,1069,0,0,0,0],"split_type":[0,0,0,0,0,0,0],"sum_hessian":[6.2043324E0,2.749931E0,3.454401E0,1.2648736E0,1.4850576E0,1.0810475E0,2.3733535E0],"tree_param":{"num_deleted":"0","num_feature":"1280","num_nodes":"7","size_leaf_vector":"1"}},{"base_weights":[1.383595E-2,3.4014466E-1,-3.9288095E-1,-1.1618125E-2,2.9849378E-2,6.070199E-3,-3.4004126E-2],"categories":[],"categories_nodes":[],"categories_segments":[],"categories_sizes":[],"default_left":[0,0,0,0,0,0,0],"id":84,"left_children":[1,3,5,-1,-1,-1,-1],"loss_changes":[1.0899297E0,8.054135E-1,6.2487644E-1,0E0,0E0,0E0,0E0],"parents":[2147483647,0,0,1,1,2,2],"right_children":[2,4,6,-1,-1,-1,-1],"split_conditions":[6.572526E-1,3.3597374E-1,3.7403688E-1,-1.1618125E-2,2.9849378E-2,6.070199E-3,-3.4004126E-2],"split_indices":[570,568,1034,0,0,0,0],"split_type":[0,0,0,0,0,0,0],"sum_hessian":[6.205602E0,3.5339768E0,2.6716254E0,1.123961E0,2.4100158E0,1.1642025E0,1.5074229E0],"tree_param":{"num_deleted":"0","num_feature":"1280","num_nodes":"7","size_leaf_vector":"1"}},{"base_weights":[-8.952171E-2,-3.7116736E-1,2.5240554E-2,-5.8455026E-1,1.2128076E-2,-2.589246E-3,-3.773754E-2],"categories":[],"categories_nodes":[],"categories_segments":[],"categories_sizes":[],"default_left":[0,0,0,0,0,0,0],"id":85,"left_children":[1,3,-1,5,-1,-1,-1],"loss_changes":[1.3004721E0,8.0810595E-1,0E0,3.2984412E-1,0E0,0E0,0E0],"parents":[2147483647,0,0,1,1,3,3],"right_children":[2,4,-1,6,-1,-1,-1],"split_conditions":[7.4572617E-1,7.6388246E-1,2.5240554E-2,3.714195E-1,1.2128076E-2,-2.589246E-3,-3.773754E-2],"split_indices":[1218,1260,0,614,0,0,0],"split_type":[0,0,0,0,0,0,0],"sum_hessian":[5.649707E0,4.0879674E0,1.5617393E0,3.0686085E0,1.0193589E0,1.0587486E0,2.0098598E0],"tree_param":{"num_deleted":"0","num_feature":"1280","num_nodes":"7","size_leaf_vector":"1"}},{"base_weights":[4.6250205E-2,3.9793673E-1,-4.0335596E-1,-9.366764E-3,3.1145811E-2,-3.4431607E-2,6.981281E-3],"categories":[],"categories_nodes":[],"categories_segments":[],"categories_sizes":[],"default_left":[0,0,0,0,0,0,0],"id":86,"left_children":[1,3,5,-1,-1,-1,-1],"loss_changes":[1.3021786E0,7.1642655E-1,6.639475E-1,0E0,0E0,0E0,0E0],"parents":[2147483647,0,0,1,1,2,2],"right_children":[2,4,6,-1,-1,-1,-1],"split_conditions":[6.1027E-1,2.228115E-1,4.9724984E-1,-9.366764E-3,3.1145811E-2,-3.4431607E-2,6.981281E-3],"split_indices":[1046,169,1114,0,0,0,0],"split_type":[0,0,0,0,0,0,0],"sum_hessian":[6.2202463E0,3.5546694E0,2.665577E0,1.0334716E0,2.5211978E0,1.5716227E0,1.0939542E0],"tree_param":{"num_deleted":"0","num_feature":"1280","num_nodes":"7","size_leaf_vector":"1"}},{"base_weights":[-9.563132E-3,3.4888908E-1,-3.5483506E-1,-9.912576E-3,3.0226676E-2,8.131183E-3,-3.0457938E-2],"categories":[],"categories_nodes":[],"categories_segments":[],"categories_sizes":[],"default_left":[0,0,0,0,0,0,0],"id":87,"left_children":[1,3,5,-1,-1,-1,-1],"loss_changes":[9.9540985E-1,6.73686E-1,6.363954E-1,0E0,0E0,0E0,0E0],"parents":[2147483647,0,0,1,1,2,2],"right_children":[2,4,6,-1,-1,-1,-1],"split_conditions":[5.819261E-1,2.6207092E-1,2.524693E-1,-9.912576E-3,3.0226676E-2,8.131183E-3,-3.0457938E-2],"split_indices":[867,1121,1111,0,0,0,0],"split_type":[0,0,0,0,0,0,0],"sum_hessian":[6.0425596E0,2.9595532E0,3.0830064E0,1.013953E0,1.9456004E0,1.134752E0,1.9482545E0],"tree_param":{"num_deleted":"0","num_feature":"1280","num_nodes":"7","size_leaf_vector":"1"}},{"base_weights":[-2.6094893E-2,-4.6955973E-1,3.018942E-1,-2.9407432E-2,-5.5521172E-3,-1.1238454E-2,2.9925108E-2],"categories":[],"categories_nodes":[],"categories_segments":[],"categories_sizes":[],"default_left":[0,0,0,0,0,0,0],"id":88,"left_children":[1,3,5,-1,-1,-1,-1],"loss_changes":[1.066195E0,6.621337E-2,8.0032766E-1,0E0,0E0,0E0,0E0],"parents":[2147483647,0,0,1,1,2,2],"right_children":[2,4,6,-1,-1,-1,-1],"split_conditions":[4.798202E-1,4.0494192E-1,2.8011245E-1,-2.9407432E-2,-5.5521172E-3,-1.1238454E-2,2.9925108E-2],"split_indices":[116,59,1226,0,0,0,0],"split_type":[0,0,0,0,0,0,0],"sum_hessian":[5.3556366E0,2.0934753E0,3.2621615E0,1.0918237E0,1.0016516E0,1.2625511E0,1.9996103E0],"tree_param":{"num_deleted":"0","num_feature":"1280","num_nodes":"7","size_leaf_vector":"1"}},{"base_weights":[-6.278462E-2,-4.1368735E-1,3.0635977E-1,-3.4103215E-2,8.115427E-3,3.0796304E-2,-1.151037E-2],"categories":[],"categories_nodes":[],"categories_segments":[],"categories_sizes":[],"default_left":[0,0,0,0,0,0,0],"id":89,"left_children":[1,3,5,-1,-1,-1,-1],"loss_changes":[9.969226E-1,7.088645E-1,7.8101313E-1,0E0,0E0,0E0,0E0],"parents":[2147483647,0,0,1,1,2,2],"right_children":[2,4,6,-1,-1,-1,-1],"split_conditions":[5.525105E-1,6.855854E-1,7.625389E-1,-3.4103215E-2,8.115427E-3,3.0796304E-2,-1.151037E-2],"split_indices":[300,500,231,0,0,0,0],"split_type":[0,0,0,0,0,0,0],"sum_hessian":[5.7178264E0,2.8694797E0,2.8483467E0,1.8318212E0,1.0376586E0,1.7124608E0,1.135886E0],"tree_param":{"num_deleted":"0","num_feature":"1280","num_nodes":"7","size_leaf_vector":"1"}},{"base_weights":[-5.7151075E-2,-3.4687975E-1,2.1298908E-2,8.978161E-3,-3.2489847E-2],"categories":[],"categories_nodes":[],"categories_segments":[],"categories_sizes":[],"default_left":[0,0,0,0,0],"id":90,"left_children":[1,3,-1,-1,-1],"loss_changes":[1.0337424E0,8.35543E-1,0E0,0E0,0E0],"parents":[2147483647,0,0,1,1],"right_children":[2,4,-1,-1,-1],"split_conditions":[6.770938E-1,4.3480086E-1,2.1298908E-2,8.978161E-3,-3.2489847E-2],"split_indices":[662,588,0,0,0],"split_type":[0,0,0,0,0],"sum_hessian":[5.32949E0,3.5078661E0,1.8216243E0,1.4299543E0,2.0779119E0],"tree_param":{"num_deleted":"0","num_feature":"1280","num_nodes":"5","size_leaf_vector":"1"}},{"base_weights":[-6.9560856E-4,4.6534166E-1,-3.2916895E-1,2.8650502E-2,6.0511758E-3,1.3124205E-2,-2.9654328E-2],"categories":[],"categories_nodes":[],"categories_segments":[],"categories_sizes":[],"default_left":[0,0,0,0,0,0,0],"id":91,"left_children":[1,3,5,-1,-1,-1,-1],"loss_changes":[1.1395581E0,4.4769526E-2,8.3730584E-1,0E0,0E0,0E0,0E0],"parents":[2147483647,0,0,1,1,2,2],"right_children":[2,4,6,-1,-1,-1,-1],"split_conditions":[3.4558088E-1,5.681622E-1,3.2527676E-1,2.8650502E-2,6.0511758E-3,1.3124205E-2,-2.9654328E-2],"split_indices":[183,1223,90,0,0,0,0],"split_type":[0,0,0,0,0,0,0],"sum_hessian":[5.443537E0,2.078246E0,3.3652914E0,1.0772135E0,1.0010326E0,1.0397658E0,2.3255255E0],"tree_param":{"num_deleted":"0","num_feature":"1280","num_nodes":"7","size_leaf_vector":"1"}},{"base_weights":[-3.5056402E-3,-3.7532446E-1,3.3881035E-1,6.9991485E-3,-3.257991E-2,3.2475248E-2,-6.9144294E-3],"categories":[],"categories_nodes":[],"categories_segments":[],"categories_sizes":[],"default_left":[0,0,0,0,0,0,0],"id":92,"left_children":[1,3,5,-1,-1,-1,-1],"loss_changes":[9.149213E-1,5.8111995E-1,6.453941E-1,0E0,0E0,0E0,0E0],"parents":[2147483647,0,0,1,1,2,2],"right_children":[2,4,6,-1,-1,-1,-1],"split_conditions":[4.238292E-1,4.883737E-1,5.6841654E-1,6.9991485E-3,-3.257991E-2,3.2475248E-2,-6.9144294E-3],"split_indices":[632,255,98,0,0,0,0],"split_type":[0,0,0,0,0,0,0],"sum_hessian":[5.1891923E0,2.4411848E0,2.7480075E0,1.0241855E0,1.4169992E0,1.4453856E0,1.302622E0],"tree_param":{"num_deleted":"0","num_feature":"1280","num_nodes":"7","size_leaf_vector":"1"}},{"base_weights":[9.489763E-3,3.811038E-1,-3.3301613E-1,-2.1370193E-3,2.9974282E-2,7.753493E-3,-3.0041976E-2],"categories":[],"categories_nodes":[],"categories_segments":[],"categories_sizes":[],"default_left":[0,0,0,0,0,0,0],"id":93,"left_children":[1,3,5,-1,-1,-1,-1],"loss_changes":[8.7176204E-1,3.2857862E-1,5.610166E-1,0E0,0E0,0E0,0E0],"parents":[2147483647,0,0,1,1,2,2],"right_children":[2,4,6,-1,-1,-1,-1],"split_conditions":[5.819261E-1,4.5610824E-1,2.9391658E-1,-2.1370193E-3,2.9974282E-2,7.753493E-3,-3.0041976E-2],"split_indices":[867,31,1111,0,0,0,0],"split_type":[0,0,0,0,0,0,0],"sum_hessian":[4.852045E0,2.273086E0,2.578959E0,1.046426E0,1.22666E0,1.0629039E0,1.5160551E0],"tree_param":{"num_deleted":"0","num_feature":"1280","num_nodes":"7","size_leaf_vector":"1"}},{"base_weights":[-7.2785476E-3,-3.800747E-1,3.4150606E-1,-3.0114872E-2,3.991961E-3,-8.028603E-3,3.0405879E-2],"categories":[],"categories_nodes":[],"categories_segments":[],"categories_sizes":[],"default_left":[0,0,0,0,0,0,0],"id":94,"left_children":[1,3,5,-1,-1,-1,-1],"loss_changes":[9.367311E-1,4.0303898E-1,5.9734017E-1,0E0,0E0,0E0,0E0],"parents":[2147483647,0,0,1,1,2,2],"right_children":[2,4,6,-1,-1,-1,-1],"split_conditions":[5.203025E-1,5.6484115E-1,2.730199E-1,-3.0114872E-2,3.991961E-3,-8.028603E-3,3.0405879E-2],"split_indices":[997,858,408,0,0,0,0],"split_type":[0,0,0,0,0,0,0],"sum_hessian":[5.205959E0,2.4729986E0,2.7329602E0,1.4586271E0,1.0143715E0,1.0858455E0,1.6471148E0],"tree_param":{"num_deleted":"0","num_feature":"1280","num_nodes":"7","size_leaf_vector":"1"}},{"base_weights":[-7.672095E-3,-2.2100372E-2,2.7932253E-1,3.1298682E-2,-8.115003E-3],"categories":[],"categories_nodes":[],"categories_segments":[],"categories_sizes":[],"default_left":[0,0,0,0,0],"id":95,"left_children":[1,-1,3,-1,-1],"loss_changes":[9.208371E-1,0E0,7.850591E-1,0E0,0E0],"parents":[2147483647,0,0,2,2],"right_children":[2,-1,4,-1,-1],"split_conditions":[3.2533032E-1,-2.2100372E-2,5.467722E-1,3.1298682E-2,-8.115003E-3],"split_indices":[59,0,1037,0,0],"split_type":[0,0,0,0,0],"sum_hessian":[5.3968096E0,1.9323231E0,3.4644864E0,1.7070775E0,1.7574089E0],"tree_param":{"num_deleted":"0","num_feature":"1280","num_nodes":"5","size_leaf_vector":"1"}},{"base_weights":[6.262731E-2,-2.826483E-1,4.8729813E-1,-2.8531333E-2,1.2180282E-2,6.9559193E-3,2.9247E-2],"categories":[],"categories_nodes":[],"categories_segments":[],"categories_sizes":[],"default_left":[0,0,0,0,0,0,0],"id":96,"left_children":[1,3,5,-1,-1,-1,-1],"loss_changes":[1.047813E0,7.5373316E-1,2.5729358E-2,0E0,0E0,0E0,0E0],"parents":[2147483647,0,0,1,1,2,2],"right_children":[2,4,6,-1,-1,-1,-1],"split_conditions":[5.1846343E-1,5.498858E-1,4.8929778E-1,-2.8531333E-2,1.2180282E-2,6.9559193E-3,2.9247E-2],"split_indices":[851,1195,822,0,0,0,0],"split_type":[0,0,0,0,0,0,0],"sum_hessian":[5.2067013E0,3.0562603E0,2.150441E0,1.920823E0,1.1354374E0,1.002045E0,1.1483959E0],"tree_param":{"num_deleted":"0","num_feature":"1280","num_nodes":"7","size_leaf_vector":"1"}},{"base_weights":[-3.474475E-2,1.9587679E-2,-3.1214672E-1,-2.8386941E-2,9.638867E-3],"categories":[],"categories_nodes":[],"categories_segments":[],"categories_sizes":[],"default_left":[0,0,0,0,0],"id":97,"left_children":[1,-1,3,-1,-1],"loss_changes":[8.813047E-1,0E0,6.829282E-1,0E0,0E0],"parents":[2147483647,0,0,2,2],"right_children":[2,-1,4,-1,-1],"split_conditions":[3.564004E-1,1.9587679E-2,6.789351E-1,-2.8386941E-2,9.638867E-3],"split_indices":[319,0,532,0,0],"split_type":[0,0,0,0,0],"sum_hessian":[5.4154396E0,1.971731E0,3.4437087E0,2.203762E0,1.2399466E0],"tree_param":{"num_deleted":"0","num_feature":"1280","num_nodes":"5","size_leaf_vector":"1"}},{"base_weights":[-6.154784E-2,-3.374228E-1,1.6782692E-2,1.0502569E-2,-3.0355945E-2],"categories":[],"categories_nodes":[],"categories_segments":[],"categories_sizes":[],"default_left":[0,0,0,0,0],"id":98,"left_children":[1,3,-1,-1,-1],"loss_changes":[7.541185E-1,7.1075356E-1,0E0,0E0,0E0],"parents":[2147483647,0,0,1,1],"right_children":[2,4,-1,-1,-1],"split_conditions":[5.297061E-1,3.7807953E-1,1.6782692E-2,1.0502569E-2,-3.0355945E-2],"split_indices":[613,1232,0,0,0],"split_type":[0,0,0,0,0],"sum_hessian":[4.8484488E0,2.950022E0,1.8984269E0,1.0466046E0,1.9034173E0],"tree_param":{"num_deleted":"0","num_feature":"1280","num_nodes":"5","size_leaf_vector":"1"}},{"base_weights":[-8.579639E-3,2.745856E-1,-3.981509E-1,2.6925677E-2,-1.3809516E-2,-8.6847384E-4,-2.8719518E-2],"categories":[],"categories_nodes":[],"categories_segments":[],"categories_sizes":[],"default_left":[0,0,0,0,0,0,0],"id":99,"left_children":[1,3,5,-1,-1,-1,-1],"loss_changes":[8.078487E-1,7.677996E-1,1.9628009E-1,0E0,0E0,0E0,0E0],"parents":[2147483647,0,0,1,1,2,2],"right_children":[2,4,6,-1,-1,-1,-1],"split_conditions":[6.6818064E-1,8.424034E-1,6.1671233E-1,2.6925677E-2,-1.3809516E-2,-8.6847384E-4,-2.8719518E-2],"split_indices":[1109,788,682,0,0,0,0],"split_type":[0,0,0,0,0,0,0],"sum_hessian":[5.3321815E0,3.2587056E0,2.0734756E0,2.2180808E0,1.0406249E0,1.0036197E0,1.069856E0],"tree_param":{"num_deleted":"0","num_feature":"1280","num_nodes":"7","size_leaf_vector":"1"}},{"base_weights":[-8.246897E-2,2.3732843E-2,-3.1606326E-1,-2.9403364E-2,1.0946394E-2],"categories":[],"categories_nodes":[],"categories_segments":[],"categories_sizes":[],"default_left":[0,0,0,0,0],"id":100,"left_children":[1,-1,3,-1,-1],"loss_changes":[8.909228E-1,0E0,7.998079E-1,0E0,0E0],"parents":[2147483647,0,0,2,2],"right_children":[2,-1,4,-1,-1],"split_conditions":[2.9563546E-1,2.3732843E-2,7.1323925E-1,-2.9403364E-2,1.0946394E-2],"split_indices":[135,0,1155,0,0],"split_type":[0,0,0,0,0],"sum_hessian":[4.693048E0,1.0815542E0,3.6114938E0,2.3284414E0,1.2830524E0],"tree_param":{"num_deleted":"0","num_feature":"1280","num_nodes":"5","size_leaf_vector":"1"}},{"base_weights":[1.97818E-3,3.2131603E-1,-3.8145465E-1,2.8661702E-2,-5.312135E-3,-2.8405165E-2,-1.2556971E-5],"categories":[],"categories_nodes":[],"categories_segments":[],"categories_sizes":[],"default_left":[0,0,0,0,0,0,0],"id":101,"left_children":[1,3,5,-1,-1,-1,-1],"loss_changes":[8.278419E-1,4.578578E-1,2.1861312E-1,0E0,0E0,0E0,0E0],"parents":[2147483647,0,0,1,1,2,2],"right_children":[2,4,6,-1,-1,-1,-1],"split_conditions":[6.572526E-1,5.4294044E-1,4.44046E-1,2.8661702E-2,-5.312135E-3,-2.8405165E-2,-1.2556971E-5],"split_indices":[570,781,172,0,0,0,0],"split_type":[0,0,0,0,0,0,0],"sum_hessian":[4.759946E0,2.6854227E0,2.0745234E0,1.4754009E0,1.2100217E0,1.0635087E0,1.0110146E0],"tree_param":{"num_deleted":"0","num_feature":"1280","num_nodes":"7","size_leaf_vector":"1"}},{"base_weights":[-4.4824235E-2,-2.269625E-2,2.34551E-1,-1.1831121E-2,2.5533993E-2],"categories":[],"categories_nodes":[],"categories_segments":[],"categories_sizes":[],"default_left":[0,0,0,0,0],"id":102,"left_children":[1,-1,3,-1,-1],"loss_changes":[8.02189E-1,0E0,6.772172E-1,0E0,0E0],"parents":[2147483647,0,0,2,2],"right_children":[2,-1,4,-1,-1],"split_conditions":[3.3836818E-1,-2.269625E-2,3.5768813E-1,-1.1831121E-2,2.5533993E-2],"split_indices":[717,0,437,0,0],"split_type":[0,0,0,0,0],"sum_hessian":[5.0871863E0,1.8107879E0,3.2763982E0,1.2634974E0,2.0129008E0],"tree_param":{"num_deleted":"0","num_feature":"1280","num_nodes":"5","size_leaf_vector":"1"}},{"base_weights":[2.2189341E-2,-3.2267973E-1,2.2125322E-2,8.113781E-3,-2.956005E-2],"categories":[],"categories_nodes":[],"categories_segments":[],"categories_sizes":[],"default_left":[0,0,0,0,0],"id":103,"left_children":[1,3,-1,-1,-1],"loss_changes":[9.128544E-1,5.512473E-1,0E0,0E0,0E0],"parents":[2147483647,0,0,1,1],"right_children":[2,4,-1,-1,-1],"split_conditions":[5.719643E-1,4.0554518E-1,2.2125322E-2,8.113781E-3,-2.956005E-2],"split_indices":[415,191,0,0,0],"split_type":[0,0,0,0,0],"sum_hessian":[4.3124757E0,2.4964445E0,1.8160315E0,1.0306811E0,1.4657633E0],"tree_param":{"num_deleted":"0","num_feature":"1280","num_nodes":"5","size_leaf_vector":"1"}},{"base_weights":[-3.9461315E-2,2.10051E-2,-3.2976863E-1,9.07566E-3,-3.0163622E-2],"categories":[],"categories_nodes":[],"categories_segments":[],"categories_sizes":[],"default_left":[0,0,0,0,0],"id":104,"left_children":[1,-1,3,-1,-1],"loss_changes":[8.86384E-1,0E0,6.682317E-1,0E0,0E0],"parents":[2147483647,0,0,2,2],"right_children":[2,-1,4,-1,-1],"split_conditions":[4.9276227E-1,2.10051E-2,3.2004452E-1,9.07566E-3,-3.0163622E-2],"split_indices":[848,0,1105,0,0],"split_type":[0,0,0,0,0],"sum_hessian":[4.605441E0,1.6098758E0,2.9955652E0,1.1611948E0,1.8343703E0],"tree_param":{"num_deleted":"0","num_feature":"1280","num_nodes":"5","size_leaf_vector":"1"}},{"base_weights":[3.232562E-2,-3.2192954E-1,3.8679624E-1,-3.128318E-2,8.81882E-3,9.716901E-4,2.8735593E-2],"categories":[],"categories_nodes":[],"categories_segments":[],"categories_sizes":[],"default_left":[0,0,0,0,0,0,0],"id":105,"left_children":[1,3,5,-1,-1,-1,-1],"loss_changes":[8.345971E-1,6.210103E-1,2.1530953E-1,0E0,0E0,0E0,0E0],"parents":[2147483647,0,0,1,1,2,2],"right_children":[2,4,6,-1,-1,-1,-1],"split_conditions":[4.983068E-1,4.3658608E-1,5.4425925E-1,-3.128318E-2,8.81882E-3,9.716901E-4,2.8735593E-2],"split_indices":[547,1159,415,0,0,0,0],"split_type":[0,0,0,0,0,0,0],"sum_hessian":[4.6546845E0,2.3739648E0,2.28072E0,1.3161477E0,1.0578171E0,1.1452501E0,1.1354698E0],"tree_param":{"num_deleted":"0","num_feature":"1280","num_nodes":"7","size_leaf_vector":"1"}},{"base_weights":[1.6627345E-2,2.293751E-2,-2.680862E-1,-2.7702352E-2,1.2480925E-2],"categories":[],"categories_nodes":[],"categories_segments":[],"categories_sizes":[],"default_left":[0,0,0,0,0],"id":106,"left_children":[1,-1,3,-1,-1],"loss_changes":[8.5376585E-1,0E0,7.5453424E-1,0E0,0E0],"parents":[2147483647,0,0,2,2],"right_children":[2,-1,4,-1,-1],"split_conditions":[2.5346512E-1,2.293751E-2,5.775206E-1,-2.7702352E-2,1.2480925E-2],"split_indices":[372,0,256,0,0],"split_type":[0,0,0,0,0],"sum_hessian":[4.805456E0,1.6429306E0,3.1625254E0,1.9920126E0,1.1705129E0],"tree_param":{"num_deleted":"0","num_feature":"1280","num_nodes":"5","size_leaf_vector":"1"}},{"base_weights":[3.0440954E-2,2.248487E-2,-2.4551935E-1,9.4253635E-3,-2.8938204E-2],"categories":[],"categories_nodes":[],"categories_segments":[],"categories_sizes":[],"default_left":[0,0,0,0,0],"id":107,"left_children":[1,-1,3,-1,-1],"loss_changes":[7.1676064E-1,0E0,6.597862E-1,0E0,0E0],"parents":[2147483647,0,0,2,2],"right_children":[2,-1,4,-1,-1],"split_conditions":[4.5010316E-1,2.248487E-2,4.984902E-1,9.4253635E-3,-2.8938204E-2],"split_indices":[932,0,790,0,0],"split_type":[0,0,0,0,0],"sum_hessian":[4.2408037E0,1.4334469E0,2.8073566E0,1.407943E0,1.3994136E0],"tree_param":{"num_deleted":"0","num_feature":"1280","num_nodes":"5","size_leaf_vector":"1"}},{"base_weights":[-4.8962003E-3,3.4581673E-1,-3.607649E-1,2.7561424E-2,-1.5449736E-3,-2.5004387E-2,-2.135609E-3],"categories":[],"categories_nodes":[],"categories_segments":[],"categories_sizes":[],"default_left":[0,0,0,0,0,0,0],"id":108,"left_children":[1,3,5,-1,-1,-1,-1],"loss_changes":[7.588021E-1,2.545327E-1,1.12062216E-1,0E0,0E0,0E0,0E0],"parents":[2147483647,0,0,1,1,2,2],"right_children":[2,4,6,-1,-1,-1,-1],"split_conditions":[5.2582324E-1,3.88847E-1,2.8011245E-1,2.7561424E-2,-1.5449736E-3,-2.5004387E-2,-2.135609E-3],"split_indices":[1161,1203,1226,0,0,0,0],"split_type":[0,0,0,0,0,0,0],"sum_hessian":[4.0801616E0,2.069193E0,2.0109687E0,1.0392668E0,1.0299262E0,1.000401E0,1.0105677E0],"tree_param":{"num_deleted":"0","num_feature":"1280","num_nodes":"7","size_leaf_vector":"1"}},{"base_weights":[9.467358E-3,-2.1230794E-2,2.753848E-1,2.67034E-2,-8.034539E-3],"categories":[],"categories_nodes":[],"categories_segments":[],"categories_sizes":[],"default_left":[0,0,0,0,0],"id":109,"left_children":[1,-1,3,-1,-1],"loss_changes":[7.702654E-1,0E0,5.5017745E-1,0E0,0E0],"parents":[2147483647,0,0,2,2],"right_children":[2,-1,4,-1,-1],"split_conditions":[4.7961724E-1,-2.1230794E-2,6.853333E-1,2.67034E-2,-8.034539E-3],"split_indices":[542,0,1008,0,0],"split_type":[0,0,0,0,0],"sum_hessian":[4.6599746E0,1.5435272E0,3.1164474E0,1.815039E0,1.3014084E0],"tree_param":{"num_deleted":"0","num_feature":"1280","num_nodes":"5","size_leaf_vector":"1"}},{"base_weights":[-7.273307E-2,2.2668013E-2,-2.8168678E-1,-4.9237028E-1,1.2077833E-2,-1.9305512E-4,-3.4208816E-2],"categories":[],"categories_nodes":[],"categories_segments":[],"categories_sizes":[],"default_left":[0,0,0,0,0,0,0],"id":110,"left_children":[1,-1,3,5,-1,-1,-1],"loss_changes":[7.6084006E-1,0E0,6.41356E-1,3.44769E-1,0E0,0E0,0E0],"parents":[2147483647,0,0,2,2,3,3],"right_children":[2,-1,4,6,-1,-1,-1],"split_conditions":[3.2389554E-1,2.2668013E-2,7.159228E-1,3.511116E-1,1.2077833E-2,-1.9305512E-4,-3.4208816E-2],"split_indices":[855,0,364,594,0,0,0],"split_type":[0,0,0,0,0,0,0],"sum_hessian":[4.7594776E0,1.0204843E0,3.7389932E0,2.7077312E0,1.031262E0,1.0510222E0,1.656709E0],"tree_param":{"num_deleted":"0","num_feature":"1280","num_nodes":"7","size_leaf_vector":"1"}},{"base_weights":[-7.903758E-2,2.076632E-1,-2.3104182E-2,-1.0063743E-2,2.6505142E-2],"categories":[],"categories_nodes":[],"categories_segments":[],"categories_sizes":[],"default_left":[0,0,0,0,0],"id":111,"left_children":[1,3,-1,-1,-1],"loss_changes":[7.2251916E-1,6.279292E-1,0E0,0E0,0E0],"parents":[2147483647,0,0,1,1],"right_children":[2,4,-1,-1,-1],"split_conditions":[5.634022E-1,3.847722E-1,-2.3104182E-2,-1.0063743E-2,2.6505142E-2],"split_indices":[764,1159,0,0,0],"split_type":[0,0,0,0,0],"sum_hessian":[4.7053695E0,2.9529905E0,1.752379E0,1.46754E0,1.4854506E0],"tree_param":{"num_deleted":"0","num_feature":"1280","num_nodes":"5","size_leaf_vector":"1"}},{"base_weights":[-7.7659875E-2,-3.3636665E-1,1.663245E-2,6.9130557E-3,-2.8896779E-2],"categories":[],"categories_nodes":[],"categories_segments":[],"categories_sizes":[],"default_left":[0,0,0,0,0],"id":112,"left_children":[1,3,-1,-1,-1],"loss_changes":[6.935443E-1,5.2222794E-1,0E0,0E0,0E0],"parents":[2147483647,0,0,1,1],"right_children":[2,4,-1,-1,-1],"split_conditions":[6.581094E-1,4.6044567E-1,1.663245E-2,6.9130557E-3,-2.8896779E-2],"split_indices":[186,781,0,0,0],"split_type":[0,0,0,0,0],"sum_hessian":[4.4795485E0,2.8578415E0,1.621707E0,1.1081781E0,1.7496632E0],"tree_param":{"num_deleted":"0","num_feature":"1280","num_nodes":"5","size_leaf_vector":"1"}},{"base_weights":[1.6132064E-2,-1.957091E-2,3.092401E-1,-3.5196044E-3,2.8245335E-2],"categories":[],